{"learner":{"attributes":{"best_iteration":"0","best_score":"0.09190553517731946"},"feature_names":[],"feature_types":[],"gradient_booster":{"model":{"cats":{"enc":[],"feature_segments":[],"sorted_idx":[]},"gbtree_model_param":{"num_parallel_tree":"1","num_trees":"51"},"iteration_indptr":[0,1,2,3,4,5,6,7,8,9,10,11,12,13,14,15,16,17,18,19,20,21,22,23,24,25,26,27,28,29,30,31,32,33,34,35,36,37,38,39,40,41,42,43,44,45,46,47,48,49,50,51],"tree_info":[0,0,0,0,0,0,0,0,0,0,0,0,0,0,0,0,0,0,0,0,0,0,0,0,0,0,0,0,0,0,0,0,0,0,0,0,0,0,0,0,0,0,0,0,0,0,0,0,0,0,0],"trees":[{"base_weights":[-6.0359525E-5,-4.095725E-4,2.5335555E-3,-6.7839347E-4,3.9256806E-3,5.3298385E-3,1.1487757E-3,-4.7885114E-4,-5.2554044E-3,-4.8650904E-3,4.954076E-3,1.6554926E-2,3.796086E-3,-6.199686E-3,2.9465258E-3,1.4924967E-3,-9.6895575E-4,4.110997E-3,-6.3094785E-3,-1.8569592E-2,-7.357209E-4,-2.6976953E-3,5.9604603E-3,-1.9459931E-2,1.941333E-2,1.605929E-2,2.4612534E-3,-1.0205398E-2,1.0851524E-2,-6.763218E-3,3.9079464E-3,2.82646E-3,-4.4879876E-3,-5.503875E-4,-4.719784E-3,-2.5598297E-2,1.2386716E-2,1.6180397E-3,-7.2639626E-3,-5.6544423E-2,-9.082216E-3,1.3774187E-2,-6.5960167E-3,-1.0119444E-2,4.205904E-3,-1.7186581E-3,7.1227853E-3,7.4800146E-3,-4.0758353E-2,2.873769E-2,1.2991479E-2,3.236028E-3,1.1402739E-2,-4.102273E-3,4.197964E-3,1.0240061E-2,-1.2614866E-2,-4.009819E-2,1.6321199E-2,1.2577554E-2,-9.455023E-3,9.4489185E-3,2.7526196E-3,1.9778362E-4,-1.3525097E-4,-1.4769363E-4,-6.621101E-4,-1.5623267E-4,-3.0652777E-6,1.9461881E-4,-2.8189455E-4,1.0364683E-4,-2.0614073E-3,-4.984058E-4,9.984163E-4,6.463551E-4,-4.1274863E-4,-5.0275977E-4,-2.1673714E-4,-8.897782E-5,-3.2120433E-3,-3.4835767E-3,8.53413E-5,1.410274E-4,1.0872089E-3,2.0740335E-4,-1.0293563E-3,2.5400298E-4,-1.0382176E-3,-6.727791E-4,4.191204E-4,9.323543E-4,-3.4568997E-4,1.411797E-4,4.6005167E-4,2.9682636E-3,-1.8225194E-4,-8.241773E-4,-2.319622E-3,1.8614682E-3,1.0439104E-3,1.3714515E-3,5.15654E-4,-9.792348E-4,7.7468884E-4,1.2095975E-3,-3.5562937E-4,-2.1994901E-4,2.6897524E-4,-3.7245924E-4,1.9705917E-3,-1.3291776E-3,-5.3477276E-4,-6.372154E-4,-2.74963E-3,-6.3099863E-4,9.556654E-4,1.6731374E-6,2.2208837E-3,7.048684E-4,-6.203511E-4,-6.496093E-4,5.878499E-4,-2.7316858E-4,1.8409021E-4],"categories":[],"categories_nodes":[],"categories_segments":[],"categories_sizes":[],"default_left":[1,1,1,1,0,0,0,0,0,0,0,0,0,1,0,1,1,0,0,0,1,1,0,0,0,0,0,0,0,0,0,1,1,0,0,1,0,1,0,0,0,0,0,0,0,0,0,0,0,0,0,0,0,0,0,0,0,0,0,0,0,0,0,0,0,0,0,0,0,0,0,0,0,0,0,0,0,0,0,0,0,0,0,0,0,0,0,0,0,0,0,0,0,0,0,0,0,0,0,0,0,0,0,0,0,0,0,0,0,0,0,0,0,0,0,0,0,0,0,0,0,0,0,0,0],"id":0,"left_children":[1,3,5,7,9,11,13,15,17,19,21,23,25,27,29,31,33,35,37,39,41,43,45,47,49,51,53,55,57,59,61,63,65,67,69,71,73,75,77,79,81,83,85,87,89,91,93,95,97,99,101,-1,103,105,107,109,111,113,115,117,119,121,123,-1,-1,-1,-1,-1,-1,-1,-1,-1,-1,-1,-1,-1,-1,-1,-1,-1,-1,-1,-1,-1,-1,-1,-1,-1,-1,-1,-1,-1,-1,-1,-1,-1,-1,-1,-1,-1,-1,-1,-1,-1,-1,-1,-1,-1,-1,-1,-1,-1,-1,-1,-1,-1,-1,-1,-1,-1,-1,-1,-1,-1,-1],"loss_changes":[5.87377E-2,6.6605665E-2,2.9786855E-2,4.9146205E-2,3.0191869E-2,4.380481E-2,6.8013735E-2,4.9823765E-2,2.2220183E-2,1.9793173E-2,2.3025557E-2,3.1878963E-2,3.6676865E-2,6.92326E-2,3.863661E-2,8.192818E-2,6.4837486E-2,5.6374475E-2,1.5304036E-2,2.8669253E-2,2.304959E-2,1.787296E-2,2.3584835E-2,1.35017745E-2,1.6632475E-2,4.911261E-2,2.3088692E-2,4.0524587E-2,5.4439373E-2,1.9537898E-2,2.4069745E-2,5.2453935E-2,2.5115218E-2,4.677895E-2,3.2803863E-2,2.1710321E-2,3.0536965E-2,2.4447396E-2,1.4706157E-2,6.6295937E-3,4.3263167E-2,6.7481007E-3,2.9097479E-2,2.7287433E-2,1.3463941E-2,3.694834E-2,2.0470403E-2,6.5658777E-3,1.013251E-3,6.8978295E-3,6.2909387E-3,0E0,2.591113E-2,3.6286063E-2,1.6286042E-2,4.5187905E-2,1.9395433E-2,7.0401374E-3,1.4382418E-2,1.8371161E-2,2.2979636E-2,3.376825E-2,2.380819E-2,0E0,0E0,0E0,0E0,0E0,0E0,0E0,0E0,0E0,0E0,0E0,0E0,0E0,0E0,0E0,0E0,0E0,0E0,0E0,0E0,0E0,0E0,0E0,0E0,0E0,0E0,0E0,0E0,0E0,0E0,0E0,0E0,0E0,0E0,0E0,0E0,0E0,0E0,0E0,0E0,0E0,0E0,0E0,0E0,0E0,0E0,0E0,0E0,0E0,0E0,0E0,0E0,0E0,0E0,0E0,0E0,0E0,0E0,0E0,0E0,0E0,0E0],"parents":[2147483647,0,0,1,1,2,2,3,3,4,4,5,5,6,6,7,7,8,8,9,9,10,10,11,11,12,12,13,13,14,14,15,15,16,16,17,17,18,18,19,19,20,20,21,21,22,22,23,23,24,24,25,25,26,26,27,27,28,28,29,29,30,30,31,31,32,32,33,33,34,34,35,35,36,36,37,37,38,38,39,39,40,40,41,41,42,42,43,43,44,44,45,45,46,46,47,47,48,48,49,49,50,50,52,52,53,53,54,54,55,55,56,56,57,57,58,58,59,59,60,60,61,61,62,62],"right_children":[2,4,6,8,10,12,14,16,18,20,22,24,26,28,30,32,34,36,38,40,42,44,46,48,50,52,54,56,58,60,62,64,66,68,70,72,74,76,78,80,82,84,86,88,90,92,94,96,98,100,102,-1,104,106,108,110,112,114,116,118,120,122,124,-1,-1,-1,-1,-1,-1,-1,-1,-1,-1,-1,-1,-1,-1,-1,-1,-1,-1,-1,-1,-1,-1,-1,-1,-1,-1,-1,-1,-1,-1,-1,-1,-1,-1,-1,-1,-1,-1,-1,-1,-1,-1,-1,-1,-1,-1,-1,-1,-1,-1,-1,-1,-1,-1,-1,-1,-1,-1,-1,-1,-1,-1],"split_conditions":[5.052879E-2,5.569534E-2,2E0,5.0895512E-2,2.00001E0,2.00001E0,2.00001E0,2.00001E0,2.00001E0,2.00001E0,2.00001E0,2.00001E0,2.00001E0,7.480721E-2,2.00001E0,7.612987E-2,6.0588237E-2,2.00001E0,2.00001E0,2.00001E0,2E0,3E0,2.00001E0,2E0,2.6386374E-1,2.00001E0,2.00001E0,2.00001E0,2.00001E0,2.00001E0,7.69635E-2,4.2902414E-2,5.8812182E-2,8.793891E-2,2.00001E0,2E0,2.00001E0,3E0,4E0,2E0,2E0,2.825644E-1,6.013144E-2,2.00001E0,2.00001E0,2E0,2.00001E0,2.00001E0,2.00001E0,2E0,2.00001E0,3.236028E-3,2.00001E0,2.00001E0,2.00001E0,1.11005045E-1,2.00001E0,2.00001E0,2.00001E0,5E0,2.00001E0,2.00001E0,2.00001E0,1.9778362E-4,-1.3525097E-4,-1.4769363E-4,-6.621101E-4,-1.5623267E-4,-3.0652777E-6,1.9461881E-4,-2.8189455E-4,1.0364683E-4,-2.0614073E-3,-4.984058E-4,9.984163E-4,6.463551E-4,-4.1274863E-4,-5.0275977E-4,-2.1673714E-4,-8.897782E-5,-3.2120433E-3,-3.4835767E-3,8.53413E-5,1.410274E-4,1.0872089E-3,2.0740335E-4,-1.0293563E-3,2.5400298E-4,-1.0382176E-3,-6.727791E-4,4.191204E-4,9.323543E-4,-3.4568997E-4,1.411797E-4,4.6005167E-4,2.9682636E-3,-1.8225194E-4,-8.241773E-4,-2.319622E-3,1.8614682E-3,1.0439104E-3,1.3714515E-3,5.15654E-4,-9.792348E-4,7.7468884E-4,1.2095975E-3,-3.5562937E-4,-2.1994901E-4,2.6897524E-4,-3.7245924E-4,1.9705917E-3,-1.3291776E-3,-5.3477276E-4,-6.372154E-4,-2.74963E-3,-6.3099863E-4,9.556654E-4,1.6731374E-6,2.2208837E-3,7.048684E-4,-6.203511E-4,-6.496093E-4,5.878499E-4,-2.7316858E-4,1.8409021E-4],"split_indices":[1578,1023,0,1023,9,2,11,13,7,13,5,65,17,275,17,2917,3312,11,9,31,0,0,1,0,775,3,13,4,8,1,1130,999,1320,2917,8,0,15,0,0,0,0,265,281,22,11,0,22,11,11,0,15,0,8,65,5,1578,81,83,5,0,8,6,1,0,0,0,0,0,0,0,0,0,0,0,0,0,0,0,0,0,0,0,0,0,0,0,0,0,0,0,0,0,0,0,0,0,0,0,0,0,0,0,0,0,0,0,0,0,0,0,0,0,0,0,0,0,0,0,0,0,0,0,0,0,0],"split_type":[0,0,0,0,0,0,0,0,0,0,0,0,0,0,0,0,0,0,0,0,0,0,0,0,0,0,0,0,0,0,0,0,0,0,0,0,0,0,0,0,0,0,0,0,0,0,0,0,0,0,0,0,0,0,0,0,0,0,0,0,0,0,0,0,0,0,0,0,0,0,0,0,0,0,0,0,0,0,0,0,0,0,0,0,0,0,0,0,0,0,0,0,0,0,0,0,0,0,0,0,0,0,0,0,0,0,0,0,0,0,0,0,0,0,0,0,0,0,0,0,0,0,0,0,0],"sum_hessian":[6.4842E4,5.7149E4,7.693E3,5.3813E4,3.336E3,2.547E3,5.146E3,5.1566E4,2.247E3,3.49E2,2.987E3,3.05E2,2.242E3,1.011E3,4.135E3,1.0267E4,4.1299E4,2.27E2,2.02E3,8E1,2.69E2,3.47E2,2.64E3,2.2E1,2.83E2,2.19E2,2.023E3,8.19E2,1.92E2,3.72E2,3.763E3,8.395E3,1.872E3,3.7154E4,4.145E3,4.9E1,1.78E2,2.17E2,1.803E3,1.5E1,6.5E1,7.7E1,1.92E2,1.67E2,1.8E2,3.47E2,2.293E3,1E1,1.2E1,1.14E2,1.69E2,1.8E1,2.01E2,4.23E2,1.6E3,8.6E1,7.33E2,1.8E1,1.74E2,4.5E1,3.27E2,6.48E2,3.115E3,6.972E3,1.423E3,1.594E3,2.78E2,5.931E3,3.1223E4,3.99E2,3.746E3,1.8E1,3.1E1,4.5E1,1.33E2,1.01E2,1.16E2,9.22E2,8.81E2,2E0,1.3E1,9E0,5.6E1,3.3E1,4.4E1,1.09E2,8.3E1,6.9E1,9.8E1,3.4E1,1.46E2,7E1,2.77E2,7.48E2,1.545E3,1E0,9E0,3E0,9E0,5.3E1,6.1E1,2.5E1,1.44E2,2.3E1,1.78E2,4E1,3.83E2,1.93E2,1.407E3,5.4E1,3.2E1,8.7E1,6.46E2,7E0,1.1E1,1.5E1,1.59E2,3.3E1,1.2E1,3.6E1,2.91E2,6E1,5.88E2,3.16E2,2.799E3],"tree_param":{"num_deleted":"0","num_feature":"3370","num_nodes":"125","size_leaf_vector":"1"}},{"base_weights":[3.4467445E-4,6.31798E-3,1.2832247E-4,-4.5132255E-3,7.5171622E-3,5.1298677E-3,-3.1667594E-5,2.8414838E-2,-1.2183842E-2,-2.0341007E-3,8.734673E-3,1.8632333E-3,1.1294688E-2,-5.6938445E-3,9.894921E-5,3.485143E-2,-2.152741E-3,1.1269777E-2,-2.2012806E-2,8.864657E-3,-1.3693179E-2,1.7438889E-2,6.99612E-3,1.5456815E-2,3.4722613E-4,3.709195E-2,8.223187E-3,6.911666E-3,-7.1298266E-3,-1.8756656E-4,2.8231991E-3,1.9997943E-2,3.9135996E-2,1.665465E-2,1.0135174E-3,-3.294412E-2,1.0167469E-4,-2.3134913E-2,2.1784661E-2,5.6022974E-3,-1.84721E-2,-9.849205E-3,2.430195E-2,6.02198E-4,8.46112E-3,6.9617718E-3,3.84885E-2,-1.0320145E-2,1.6593069E-3,2.7980518E-3,3.147567E-2,3.1997815E-2,5.022769E-3,-5.109585E-3,1.739821E-2,5.4849703E-3,-8.492074E-3,1.9669954E-3,-5.35338E-4,-2.4031212E-3,3.4393317E-3,1.5173357E-3,3.1580924E-4,1.4743438E-3,2.1965292E-3,2.1588325E-3,3.107424E-4,-1.3106823E-3,7.277352E-4,-2.538995E-3,-1.1332998E-3,-1.677836E-3,6.88611E-4,1.1831701E-3,-1.7839806E-3,-1.1061728E-3,1.5686312E-3,-1.9522402E-3,1.6008535E-3,1.7417444E-5,-1.5512758E-3,-1.8079091E-3,-3.6843034E-4,4.5273406E-4,1.5138648E-3,-1.1938704E-3,3.186026E-4,5.289489E-4,1.1380995E-4,6.213911E-4,-2.273775E-4,-2.4397713E-4,2.3977961E-3,7.1829953E-4,-8.96353E-4,-2.4110694E-4,1.612112E-4,1.8814972E-3,1.2341245E-3,2.6146083E-3,1.2595653E-4,-3.9427882E-4,4.1342268E-4,7.2822574E-4,-1.2612516E-3,-7.05874E-4,1.2756212E-3,-5.6031375E-4,1.2380396E-3,-9.26787E-4,-3.140761E-4,5.0741894E-4,5.218241E-5,-1.9328254E-4,-7.807788E-6,-6.9529953E-4,3.306328E-5,-7.452541E-5,2.0358199E-4],"categories":[],"categories_nodes":[],"categories_segments":[],"categories_sizes":[],"default_left":[0,0,0,0,0,1,0,0,0,0,0,0,0,0,1,0,0,0,1,0,0,0,0,0,0,0,0,0,0,0,0,0,0,0,0,0,0,0,0,0,0,0,0,0,1,0,0,0,0,0,0,0,0,0,0,1,0,0,0,0,0,0,0,0,0,0,0,0,0,0,0,0,0,0,0,0,0,0,0,0,0,0,0,0,0,0,0,0,0,0,0,0,0,0,0,0,0,0,0,0,0,0,0,0,0,0,0,0,0,0,0,0,0,0,0,0,0,0,0],"id":1,"left_children":[1,3,5,7,9,11,13,15,17,19,21,23,25,27,29,31,-1,33,35,37,39,41,43,45,47,49,51,53,55,57,59,61,63,65,67,69,71,73,75,77,79,81,83,85,87,89,91,93,95,-1,97,99,101,103,105,107,109,111,113,115,117,-1,-1,-1,-1,-1,-1,-1,-1,-1,-1,-1,-1,-1,-1,-1,-1,-1,-1,-1,-1,-1,-1,-1,-1,-1,-1,-1,-1,-1,-1,-1,-1,-1,-1,-1,-1,-1,-1,-1,-1,-1,-1,-1,-1,-1,-1,-1,-1,-1,-1,-1,-1,-1,-1,-1,-1,-1,-1],"loss_changes":[8.359527E-2,2.9401124E-2,4.9953293E-2,5.7428952E-2,2.3693934E-2,3.89464E-2,4.4738963E-2,2.1281436E-2,4.266464E-2,2.9474434E-2,2.7207717E-2,2.6084319E-2,5.2783325E-2,2.4739433E-2,4.6153113E-2,1.7629899E-3,0E0,3.0206963E-3,3.142959E-2,5.0116133E-2,1.043118E-2,5.642332E-2,1.4111109E-2,2.4580259E-2,1.5973082E-2,5.7627484E-3,4.5492534E-2,1.7737491E-2,2.109756E-2,4.0090594E-2,1.8127803E-2,1.3658074E-3,9.252876E-5,9.699504E-3,7.7552944E-3,1.4797725E-2,2.0707808E-2,2.1391783E-2,3.6899146E-2,2.8374992E-2,2.1274291E-2,3.714546E-3,2.1591693E-2,3.9982885E-2,1.6035035E-2,5.9701055E-3,1.4193844E-2,2.3730706E-2,1.0320758E-2,0E0,1.4542043E-3,4.234407E-2,2.22703E-2,2.6487108E-2,1.9539552E-2,3.8885973E-2,2.443903E-2,5.6162868E-2,5.8173858E-2,2.0947246E-2,1.5697937E-2,0E0,0E0,0E0,0E0,0E0,0E0,0E0,0E0,0E0,0E0,0E0,0E0,0E0,0E0,0E0,0E0,0E0,0E0,0E0,0E0,0E0,0E0,0E0,0E0,0E0,0E0,0E0,0E0,0E0,0E0,0E0,0E0,0E0,0E0,0E0,0E0,0E0,0E0,0E0,0E0,0E0,0E0,0E0,0E0,0E0,0E0,0E0,0E0,0E0,0E0,0E0,0E0,0E0,0E0,0E0,0E0,0E0,0E0],"parents":[2147483647,0,0,1,1,2,2,3,3,4,4,5,5,6,6,7,7,8,8,9,9,10,10,11,11,12,12,13,13,14,14,15,15,17,17,18,18,19,19,20,20,21,21,22,22,23,23,24,24,25,25,26,26,27,27,28,28,29,29,30,30,31,31,32,32,33,33,34,34,35,35,36,36,37,37,38,38,39,39,40,40,41,41,42,42,43,43,44,44,45,45,46,46,47,47,48,48,50,50,51,51,52,52,53,53,54,54,55,55,56,56,57,57,58,58,59,59,60,60],"right_children":[2,4,6,8,10,12,14,16,18,20,22,24,26,28,30,32,-1,34,36,38,40,42,44,46,48,50,52,54,56,58,60,62,64,66,68,70,72,74,76,78,80,82,84,86,88,90,92,94,96,-1,98,100,102,104,106,108,110,112,114,116,118,-1,-1,-1,-1,-1,-1,-1,-1,-1,-1,-1,-1,-1,-1,-1,-1,-1,-1,-1,-1,-1,-1,-1,-1,-1,-1,-1,-1,-1,-1,-1,-1,-1,-1,-1,-1,-1,-1,-1,-1,-1,-1,-1,-1,-1,-1,-1,-1,-1,-1,-1,-1,-1,-1,-1,-1,-1,-1],"split_conditions":[2.00001E0,2.00001E0,6.5091826E-2,2.00001E0,2.00001E0,4E0,7.911738E-2,1.000001E1,2.00001E0,4E0,2E0,2.00001E0,2.00001E0,2.00001E0,8.318021E-2,2E0,-2.152741E-3,5E0,4E0,1.720992E-1,2.00001E0,2.00001E0,3E0,4E0,2.00001E0,2.00001E0,2.00001E0,4E0,2.00001E0,7.6482795E-2,2.00001E0,2.4100825E-1,1.7085557E-1,2.4100825E-1,2.4100825E-1,2.00001E0,2.00001E0,2.00001E0,2.00001E0,5E0,5E0,2.00001E0,2.4100825E-1,2.00001E0,5E0,3E0,2.00001E0,2.00001E0,2.00001E0,2.7980518E-3,5E0,5E0,2.00001E0,2.00001E0,2.00001E0,3E0,2.00001E0,2.00001E0,2.00001E0,2.00001E0,2.00001E0,1.5173357E-3,3.1580924E-4,1.4743438E-3,2.1965292E-3,2.1588325E-3,3.107424E-4,-1.3106823E-3,7.277352E-4,-2.538995E-3,-1.1332998E-3,-1.677836E-3,6.88611E-4,1.1831701E-3,-1.7839806E-3,-1.1061728E-3,1.5686312E-3,-1.9522402E-3,1.6008535E-3,1.7417444E-5,-1.5512758E-3,-1.8079091E-3,-3.6843034E-4,4.5273406E-4,1.5138648E-3,-1.1938704E-3,3.186026E-4,5.289489E-4,1.1380995E-4,6.213911E-4,-2.273775E-4,-2.4397713E-4,2.3977961E-3,7.1829953E-4,-8.96353E-4,-2.4110694E-4,1.612112E-4,1.8814972E-3,1.2341245E-3,2.6146083E-3,1.2595653E-4,-3.9427882E-4,4.1342268E-4,7.2822574E-4,-1.2612516E-3,-7.05874E-4,1.2756212E-3,-5.6031375E-4,1.2380396E-3,-9.26787E-4,-3.140761E-4,5.0741894E-4,5.218241E-5,-1.9328254E-4,-7.807788E-6,-6.9529953E-4,3.306328E-5,-7.452541E-5,2.0358199E-4],"split_indices":[44,1,2492,15,3,0,2655,0,14,0,0,7,4,2,1971,0,0,0,0,235,12,11,0,0,5,12,8,0,9,1524,9,255,247,255,255,12,13,12,15,0,0,2,255,12,0,0,15,13,13,0,0,0,14,28,113,0,13,8,5,14,4,0,0,0,0,0,0,0,0,0,0,0,0,0,0,0,0,0,0,0,0,0,0,0,0,0,0,0,0,0,0,0,0,0,0,0,0,0,0,0,0,0,0,0,0,0,0,0,0,0,0,0,0,0,0,0,0,0,0],"split_type":[0,0,0,0,0,0,0,0,0,0,0,0,0,0,0,0,0,0,0,0,0,0,0,0,0,0,0,0,0,0,0,0,0,0,0,0,0,0,0,0,0,0,0,0,0,0,0,0,0,0,0,0,0,0,0,0,0,0,0,0,0,0,0,0,0,0,0,0,0,0,0,0,0,0,0,0,0,0,0,0,0,0,0,0,0,0,0,0,0,0,0,0,0,0,0,0,0,0,0,0,0,0,0,0,0,0,0,0,0,0,0,0,0,0,0,0,0,0,0],"sum_hessian":[6.4685E4,2.26E3,6.2425E4,2.25E2,2.035E3,1.934E3,6.0491E4,4.2E1,1.83E2,2.3E2,1.805E3,1.265E3,6.69E2,1.363E3,5.9128E4,3.9E1,3E0,5.4E1,1.29E2,1.19E2,1.11E2,2.99E2,1.506E3,1.26E2,1.139E3,7E1,5.99E2,1.39E2,1.224E3,5.3502E4,5.626E3,1E1,2.9E1,3.5E1,1.9E1,8.6E1,4.3E1,3.4E1,8.5E1,2.2E1,8.9E1,6E1,2.39E2,2.81E2,1.225E3,9.3E1,3.3E1,1.24E2,1.015E3,1.4E1,5.6E1,7E1,5.29E2,6.5E1,7.4E1,1.19E2,1.105E3,7.435E3,4.6067E4,5.93E2,5.033E3,5E0,5E0,1.2E1,1.7E1,9E0,2.6E1,6E0,1.3E1,3E1,5.6E1,1.2E1,3.1E1,7E0,2.7E1,1.5E1,7E1,8E0,1.4E1,3.6E1,5.3E1,4E0,5.6E1,6.8E1,1.71E2,5.3E1,2.28E2,9.12E2,3.13E2,6.3E1,3E1,6E0,2.7E1,2.9E1,9.5E1,1.97E2,8.18E2,2.7E1,2.9E1,4.1E1,2.9E1,1.06E2,4.23E2,3.3E1,3.2E1,1.5E1,5.9E1,6.4E1,5.5E1,1.98E2,9.07E2,7.53E2,6.682E3,4.708E3,4.1359E4,1.24E2,4.69E2,5.72E2,4.461E3],"tree_param":{"num_deleted":"0","num_feature":"3370","num_nodes":"119","size_leaf_vector":"1"}},{"base_weights":[4.143668E-4,-3.7954417E-3,5.9338E-4,-1.3136117E-2,-1.9365869E-3,8.5409917E-4,-2.6804504E-3,-1.5484014E-3,-2.2137303E-2,-1.2704189E-2,-6.415268E-4,2.5029248E-3,4.6704244E-4,-9.390302E-3,-1.8670764E-3,2.507338E-2,-7.3988033E-3,4.8015667E-3,-2.5192587E-2,-3.9980117E-2,-5.925798E-3,8.429138E-3,-1.8973364E-3,7.536623E-3,1.2930725E-3,3.4937537E-3,1.3368136E-4,-3.2622586E-3,-2.2120938E-2,-8.410081E-6,-5.7139797E-3,-3.4807522E-3,3.2921616E-2,1.8964935E-2,-1.0481214E-2,-1.3213317E-3,2.0148912E-2,-5.519027E-3,-2.9618537E-2,-4.5621157E-2,-6.7774057E-3,-1.9299872E-4,-1.3072665E-2,-4.3271864E-3,1.3921891E-2,8.883022E-3,-3.3815738E-3,4.0227305E-2,6.4188605E-3,-1.3781774E-3,3.9676595E-3,6.245026E-3,2.9881564E-3,-1.5631857E-3,5.690627E-4,-1.6687268E-2,6.0639405E-3,-5.243724E-2,-1.3591872E-2,-1.043722E-2,1.1816552E-3,-9.332157E-3,-3.2193842E-5,4.111111E-3,1.2625408E-3,3.0929907E-3,-5.0279446E-4,3.5969663E-4,-6.077614E-4,2.0155224E-3,3.35447E-4,5.3634885E-4,-9.703014E-4,-1.05933344E-4,-1.6804136E-3,-1.0844469E-3,-2.593479E-3,3.2999832E-3,-2.1018188E-3,-4.4780175E-4,3.4103237E-4,7.030513E-5,-1.1869412E-3,3.002722E-3,-9.638723E-4,9.806402E-4,2.1838547E-4,-1.7925338E-5,5.8866205E-4,2.7385104E-4,-2.7294958E-4,2.2882565E-3,-8.07551E-4,1.0005676E-3,2.421803E-4,-1.0565485E-5,-3.4380262E-4,3.602717E-4,-6.411935E-5,-6.092277E-4,4.0335814E-4,4.491732E-4,1.13437825E-4,2.2661046E-4,-1.13345326E-4,2.2242582E-4,1.9463832E-5,-1.3976144E-3,-3.8317533E-4,-2.9587178E-4,1.0174311E-3,-1.5123559E-3,-3.8448782E-3,-2.2996427E-3,-1.3249814E-4,-1.067791E-3,5.0778226E-6,-2.0503302E-4,9.552301E-5,-1.1639944E-3,-3.7187475E-4,1.3008944E-3,-1.5846694E-4],"categories":[],"categories_nodes":[],"categories_segments":[],"categories_sizes":[],"default_left":[0,0,1,0,0,0,0,0,0,0,0,0,0,0,1,0,0,0,0,0,0,0,0,0,0,0,0,0,0,0,0,0,0,0,0,0,0,0,0,0,0,0,0,0,1,0,0,0,0,1,1,0,0,0,0,0,0,1,0,0,0,0,0,0,0,0,0,0,0,0,0,0,0,0,0,0,0,0,0,0,0,0,0,0,0,0,0,0,0,0,0,0,0,0,0,0,0,0,0,0,0,0,0,0,0,0,0,0,0,0,0,0,0,0,0,0,0,0,0,0,0,0,0],"id":2,"left_children":[1,3,5,7,9,11,13,15,17,19,21,23,25,27,29,31,33,35,37,39,41,43,45,47,49,51,53,55,57,59,61,-1,63,65,67,-1,69,71,73,75,77,79,81,83,85,87,89,91,93,95,97,99,101,103,105,107,109,111,113,115,117,119,121,-1,-1,-1,-1,-1,-1,-1,-1,-1,-1,-1,-1,-1,-1,-1,-1,-1,-1,-1,-1,-1,-1,-1,-1,-1,-1,-1,-1,-1,-1,-1,-1,-1,-1,-1,-1,-1,-1,-1,-1,-1,-1,-1,-1,-1,-1,-1,-1,-1,-1,-1,-1,-1,-1,-1,-1,-1,-1,-1,-1],"loss_changes":[4.8887514E-2,4.591695E-2,5.3112753E-2,4.5754813E-2,3.0781727E-2,3.6780216E-2,2.5032941E-2,3.0244898E-2,2.0450525E-2,4.3581285E-2,2.24791E-2,6.671873E-2,4.7097065E-2,3.8622726E-2,2.927965E-2,2.830165E-2,1.3119732E-2,1.2993488E-2,1.916702E-2,8.493803E-3,7.823043E-3,1.6876403E-2,2.7759098E-2,7.73171E-2,6.312703E-2,6.4232275E-3,3.1065289E-2,4.216984E-2,4.0917E-2,3.429142E-2,2.7423684E-2,0E0,1.04036E-2,2.1784417E-2,4.3185856E-3,0E0,4.607029E-3,9.683715E-3,1.978761E-2,4.856549E-3,2.3302741E-2,6.637395E-3,1.3160167E-2,7.14218E-2,9.048834E-3,5.613329E-3,2.8076077E-2,2.2594102E-2,4.388257E-2,2.8360553E-2,7.505746E-2,2.4209611E-2,1.686079E-2,3.6839545E-2,2.3337767E-2,1.3813883E-2,3.4179293E-2,1.6671285E-2,4.490325E-2,3.2566614E-2,9.555285E-3,2.1364234E-2,4.2578354E-2,0E0,0E0,0E0,0E0,0E0,0E0,0E0,0E0,0E0,0E0,0E0,0E0,0E0,0E0,0E0,0E0,0E0,0E0,0E0,0E0,0E0,0E0,0E0,0E0,0E0,0E0,0E0,0E0,0E0,0E0,0E0,0E0,0E0,0E0,0E0,0E0,0E0,0E0,0E0,0E0,0E0,0E0,0E0,0E0,0E0,0E0,0E0,0E0,0E0,0E0,0E0,0E0,0E0,0E0,0E0,0E0,0E0,0E0,0E0,0E0],"parents":[2147483647,0,0,1,1,2,2,3,3,4,4,5,5,6,6,7,7,8,8,9,9,10,10,11,11,12,12,13,13,14,14,15,15,16,16,17,17,18,18,19,19,20,20,21,21,22,22,23,23,24,24,25,25,26,26,27,27,28,28,29,29,30,30,32,32,33,33,34,34,36,36,37,37,38,38,39,39,40,40,41,41,42,42,43,43,44,44,45,45,46,46,47,47,48,48,49,49,50,50,51,51,52,52,53,53,54,54,55,55,56,56,57,57,58,58,59,59,60,60,61,61,62,62],"right_children":[2,4,6,8,10,12,14,16,18,20,22,24,26,28,30,32,34,36,38,40,42,44,46,48,50,52,54,56,58,60,62,-1,64,66,68,-1,70,72,74,76,78,80,82,84,86,88,90,92,94,96,98,100,102,104,106,108,110,112,114,116,118,120,122,-1,-1,-1,-1,-1,-1,-1,-1,-1,-1,-1,-1,-1,-1,-1,-1,-1,-1,-1,-1,-1,-1,-1,-1,-1,-1,-1,-1,-1,-1,-1,-1,-1,-1,-1,-1,-1,-1,-1,-1,-1,-1,-1,-1,-1,-1,-1,-1,-1,-1,-1,-1,-1,-1,-1,-1,-1,-1,-1,-1],"split_conditions":[8.7401725E-2,2E0,6.5091826E-2,2.00001E0,2.00001E0,6.237764E-1,2.00001E0,2.00001E0,2.00001E0,2.00001E0,2.00001E0,2.00001E0,1.1270624E-1,5E0,4E0,2.00001E0,2.00001E0,2.00001E0,2.00001E0,1.000001E1,5E0,2.00001E0,2.00001E0,2.00001E0,4E0,2.00001E0,5.0726626E-2,1.0275029E-1,2.00001E0,2.00001E0,3.0215222E-1,-3.4807522E-3,2.00001E0,2.00001E0,2.00001E0,-1.3213317E-3,2.00001E0,2.00001E0,2.00001E0,2.00001E0,2.00001E0,2.00001E0,2.00001E0,2.00001E0,4E0,2.00001E0,2.00001E0,1.000001E1,2.00001E0,7.589279E-2,5.818777E-2,2.00001E0,2.00001E0,2.00001E0,2.2369781E-1,3E0,3E0,7.034803E-2,2.00001E0,1.0953188E-1,2.00001E0,2.00001E0,2.00001E0,4.111111E-3,1.2625408E-3,3.0929907E-3,-5.0279446E-4,3.5969663E-4,-6.077614E-4,2.0155224E-3,3.35447E-4,5.3634885E-4,-9.703014E-4,-1.05933344E-4,-1.6804136E-3,-1.0844469E-3,-2.593479E-3,3.2999832E-3,-2.1018188E-3,-4.4780175E-4,3.4103237E-4,7.030513E-5,-1.1869412E-3,3.002722E-3,-9.638723E-4,9.806402E-4,2.1838547E-4,-1.7925338E-5,5.8866205E-4,2.7385104E-4,-2.7294958E-4,2.2882565E-3,-8.07551E-4,1.0005676E-3,2.421803E-4,-1.0565485E-5,-3.4380262E-4,3.602717E-4,-6.411935E-5,-6.092277E-4,4.0335814E-4,4.491732E-4,1.13437825E-4,2.2661046E-4,-1.13345326E-4,2.2242582E-4,1.9463832E-5,-1.3976144E-3,-3.8317533E-4,-2.9587178E-4,1.0174311E-3,-1.5123559E-3,-3.8448782E-3,-2.2996427E-3,-1.3249814E-4,-1.067791E-3,5.0778226E-6,-2.0503302E-4,9.552301E-5,-1.1639944E-3,-3.7187475E-4,1.3008944E-3,-1.5846694E-4],"split_indices":[2859,0,2492,24,1,2729,10,14,4,11,2,15,855,0,0,9,3,11,14,0,0,33,10,93,0,49,1829,1543,15,8,2255,0,4,15,8,0,15,29,10,33,29,24,24,15,0,11,11,0,10,2570,2138,7,7,8,489,0,0,2255,22,281,3,6,6,0,0,0,0,0,0,0,0,0,0,0,0,0,0,0,0,0,0,0,0,0,0,0,0,0,0,0,0,0,0,0,0,0,0,0,0,0,0,0,0,0,0,0,0,0,0,0,0,0,0,0,0,0,0,0,0,0,0,0,0],"split_type":[0,0,0,0,0,0,0,0,0,0,0,0,0,0,0,0,0,0,0,0,0,0,0,0,0,0,0,0,0,0,0,0,0,0,0,0,0,0,0,0,0,0,0,0,0,0,0,0,0,0,0,0,0,0,0,0,0,0,0,0,0,0,0,0,0,0,0,0,0,0,0,0,0,0,0,0,0,0,0,0,0,0,0,0,0,0,0,0,0,0,0,0,0,0,0,0,0,0,0,0,0,0,0,0,0,0,0,0,0,0,0,0,0,0,0,0,0,0,0,0,0,0,0],"sum_hessian":[6.4867E4,2.645E3,6.2222E4,4.38E2,2.207E3,5.7633E4,4.589E3,1.92E2,2.46E2,2.36E2,1.971E3,1.0956E4,4.6677E4,4.95E2,4.094E3,3.4E1,1.58E2,2.5E1,2.21E2,4.6E1,1.9E2,2.39E2,1.732E3,2.122E3,8.834E3,4.63E3,4.2047E4,3.35E2,1.6E2,2.761E3,1.333E3,2E0,3.2E1,1.6E1,1.42E2,8E0,1.7E1,4.1E1,1.8E2,3.9E1,7E0,1.06E2,8.4E1,7.2E1,1.67E2,2.09E2,1.523E3,6.9E1,2.053E3,4.42E3,4.414E3,7.17E2,3.913E3,8.585E3,3.3462E4,1.37E2,1.98E2,3.4E1,1.26E2,2.82E2,2.479E3,8.14E2,5.19E2,3E0,2.9E1,6E0,1E1,1.2E1,1.3E2,6E0,1.1E1,1.9E1,2.2E1,2.3E1,1.57E2,9E0,3E1,2E0,5E0,4.7E1,5.9E1,3.6E1,4.8E1,1.3E1,5.9E1,1.04E2,6.3E1,5E1,1.59E2,2.89E2,1.234E3,6.3E1,6E0,2.12E2,1.841E3,3.647E3,7.73E2,2.73E3,1.684E3,6.4E1,6.53E2,4.18E2,3.495E3,8.88E2,7.697E3,1.481E3,3.1981E4,6E1,7.7E1,1.08E2,9E1,1.9E1,1.5E1,3.1E1,9.5E1,1.38E2,1.44E2,3E2,2.179E3,9.6E1,7.18E2,5.5E1,4.64E2],"tree_param":{"num_deleted":"0","num_feature":"3370","num_nodes":"123","size_leaf_vector":"1"}},{"base_weights":[5.7619E-5,-4.32998E-3,3.496255E-4,3.672345E-3,-5.2701076E-3,8.724034E-4,-1.2910413E-3,-1.0648847E-2,1.4456882E-2,1.1092239E-3,-6.011958E-3,1.2627013E-3,-2.3237905E-3,7.090183E-3,-1.7311834E-3,-1.9163778E-2,2.8894136E-2,3.658327E-2,9.541369E-3,2.027049E-2,-2.995933E-3,-1.0084405E-2,-3.908411E-3,9.829265E-4,3.8266245E-3,-6.911274E-3,-1.2120263E-3,-8.383763E-3,8.887458E-3,9.773257E-4,-2.393163E-3,1.223135E-3,-2.6210794E-2,1.2608437E-2,5.2979175E-2,5.5607963E-2,2.372602E-2,-2.0109117E-3,1.4829809E-2,3.3218995E-2,2.1580006E-3,1.7619401E-2,-8.261475E-3,1.8882675E-3,-1.1596612E-2,-1.819224E-2,-2.70169E-3,1.3021827E-3,-1.8422984E-3,9.4928E-3,2.416757E-3,-3.8306154E-3,-2.4503872E-2,2.4367478E-3,-3.094679E-3,2.6250912E-2,-1.5181717E-2,-7.5352867E-3,1.116959E-2,2.407569E-3,-5.201998E-3,1.6348651E-3,-2.8291943E-3,-6.573598E-4,1.0719355E-3,-6.560953E-4,-1.5838944E-3,2.428929E-3,-8.341968E-5,-6.1071716E-4,3.2971469E-3,1.6123116E-3,3.4368278E-3,-1.8498898E-3,1.6246395E-3,-1.233898E-3,4.4265768E-4,-3.5469708E-4,1.1925333E-3,2.6838647E-3,7.4852165E-4,-1.2211204E-3,9.879192E-4,3.873437E-4,1.8057412E-3,5.5207085E-5,-1.3907857E-3,-2.6418527E-3,4.6332853E-4,-1.7510234E-5,-6.786866E-4,-2.0966267E-5,-1.5666211E-3,1.750168E-4,-2.1125717E-4,-6.93571E-5,8.023246E-5,1.8588407E-4,-2.3085682E-4,1.8002689E-3,3.541383E-4,-2.649805E-4,1.6592124E-4,-9.5962005E-4,-9.409885E-5,1.2345541E-4,-1.4402446E-3,8.715793E-4,4.244015E-5,1.7262345E-4,-1.9358483E-4,8.6107256E-4,3.3651113E-3,-2.0321574E-4,-1.3621947E-3,-7.49412E-4,1.4601503E-3,9.696809E-4,4.6105264E-4,-3.0498378E-4,1.686647E-4,-6.70044E-5,-6.338418E-4,-7.581807E-4,2.2882207E-4,7.73177E-5,-1.7469862E-4],"categories":[],"categories_nodes":[],"categories_segments":[],"categories_sizes":[],"default_left":[0,0,1,0,0,1,0,0,0,0,0,1,0,0,0,0,0,0,0,0,0,0,0,1,0,0,1,0,0,1,0,0,0,0,0,0,0,0,0,1,0,0,0,0,0,0,0,0,0,0,0,0,0,0,0,1,1,0,0,0,1,0,0,0,0,0,0,0,0,0,0,0,0,0,0,0,0,0,0,0,0,0,0,0,0,0,0,0,0,0,0,0,0,0,0,0,0,0,0,0,0,0,0,0,0,0,0,0,0,0,0,0,0,0,0,0,0,0,0,0,0,0,0,0,0,0,0],"id":3,"left_children":[1,3,5,7,9,11,13,15,17,19,21,23,25,27,29,31,33,35,37,39,41,43,45,47,49,51,53,55,57,59,61,63,65,67,69,71,73,75,77,79,81,83,85,87,89,91,93,95,97,99,101,103,105,107,109,111,113,115,117,119,121,123,125,-1,-1,-1,-1,-1,-1,-1,-1,-1,-1,-1,-1,-1,-1,-1,-1,-1,-1,-1,-1,-1,-1,-1,-1,-1,-1,-1,-1,-1,-1,-1,-1,-1,-1,-1,-1,-1,-1,-1,-1,-1,-1,-1,-1,-1,-1,-1,-1,-1,-1,-1,-1,-1,-1,-1,-1,-1,-1,-1,-1,-1,-1,-1,-1],"loss_changes":[8.3278716E-2,3.0533478E-2,5.2273057E-2,6.6103E-2,1.7185673E-2,5.765842E-2,5.4339148E-2,6.2507585E-2,2.6189003E-2,2.9872868E-2,2.7819104E-2,2.9541984E-2,2.5645627E-2,2.0515539E-2,2.5091477E-2,2.1869428E-2,1.2275992E-2,9.443279E-3,1.2309622E-2,1.5641803E-2,3.4121994E-2,2.006431E-2,3.694059E-2,3.349978E-2,3.2346684E-2,5.3073186E-2,2.7828503E-2,1.8527793E-2,2.4782743E-2,2.4308011E-2,1.9754745E-2,1.1902039E-2,7.6704025E-3,1.0865381E-2,1.1792444E-2,2.9975176E-3,1.6108012E-2,1.5978878E-2,2.7461596E-2,1.3756473E-2,1.40494825E-2,1.1406401E-2,4.5815088E-2,5.0962113E-2,2.1852717E-2,3.898794E-2,1.872281E-2,2.7144771E-2,5.8196317E-2,5.1309228E-2,2.2601955E-2,2.498918E-2,1.7008774E-2,3.2820538E-2,1.36065E-2,3.6596842E-3,8.6057745E-3,2.2616211E-2,9.099551E-3,1.8366143E-2,1.4907327E-2,5.4375395E-2,2.9520676E-2,0E0,0E0,0E0,0E0,0E0,0E0,0E0,0E0,0E0,0E0,0E0,0E0,0E0,0E0,0E0,0E0,0E0,0E0,0E0,0E0,0E0,0E0,0E0,0E0,0E0,0E0,0E0,0E0,0E0,0E0,0E0,0E0,0E0,0E0,0E0,0E0,0E0,0E0,0E0,0E0,0E0,0E0,0E0,0E0,0E0,0E0,0E0,0E0,0E0,0E0,0E0,0E0,0E0,0E0,0E0,0E0,0E0,0E0,0E0,0E0,0E0,0E0,0E0,0E0],"parents":[2147483647,0,0,1,1,2,2,3,3,4,4,5,5,6,6,7,7,8,8,9,9,10,10,11,11,12,12,13,13,14,14,15,15,16,16,17,17,18,18,19,19,20,20,21,21,22,22,23,23,24,24,25,25,26,26,27,27,28,28,29,29,30,30,31,31,32,32,33,33,34,34,35,35,36,36,37,37,38,38,39,39,40,40,41,41,42,42,43,43,44,44,45,45,46,46,47,47,48,48,49,49,50,50,51,51,52,52,53,53,54,54,55,55,56,56,57,57,58,58,59,59,60,60,61,61,62,62],"right_children":[2,4,6,8,10,12,14,16,18,20,22,24,26,28,30,32,34,36,38,40,42,44,46,48,50,52,54,56,58,60,62,64,66,68,70,72,74,76,78,80,82,84,86,88,90,92,94,96,98,100,102,104,106,108,110,112,114,116,118,120,122,124,126,-1,-1,-1,-1,-1,-1,-1,-1,-1,-1,-1,-1,-1,-1,-1,-1,-1,-1,-1,-1,-1,-1,-1,-1,-1,-1,-1,-1,-1,-1,-1,-1,-1,-1,-1,-1,-1,-1,-1,-1,-1,-1,-1,-1,-1,-1,-1,-1,-1,-1,-1,-1,-1,-1,-1,-1,-1,-1,-1,-1,-1,-1,-1,-1],"split_conditions":[6.997723E-2,2.00001E0,4.2702712E-2,3.805629E-1,2.00001E0,6.42029E-2,2.00001E0,1.000001E1,2.00001E0,2.00001E0,3E0,5.2938256E-2,2.00001E0,2.00001E0,2.00001E0,2.00001E0,2.00001E0,3E0,3E0,3.9285727E-2,2.00001E0,2.00001E0,2.00001E0,8.397368E-2,2.00001E0,1.000001E1,2E0,2.00001E0,2.00001E0,6.357078E-2,2.00001E0,4E0,2.00001E0,2.00001E0,2.00001E0,2.00001E0,2.00001E0,2.00001E0,2.00001E0,3E0,4E0,3.9285727E-2,5E0,2.00001E0,2.00001E0,5E0,2.00001E0,2.00001E0,3E0,2.00001E0,2.00001E0,2.00001E0,2.00001E0,2.00001E0,2.00001E0,4E0,3E0,1.000001E1,2.00001E0,2.00001E0,4E0,1.935794E-1,1.935794E-1,-6.573598E-4,1.0719355E-3,-6.560953E-4,-1.5838944E-3,2.428929E-3,-8.341968E-5,-6.1071716E-4,3.2971469E-3,1.6123116E-3,3.4368278E-3,-1.8498898E-3,1.6246395E-3,-1.233898E-3,4.4265768E-4,-3.5469708E-4,1.1925333E-3,2.6838647E-3,7.4852165E-4,-1.2211204E-3,9.879192E-4,3.873437E-4,1.8057412E-3,5.5207085E-5,-1.3907857E-3,-2.6418527E-3,4.6332853E-4,-1.7510234E-5,-6.786866E-4,-2.0966267E-5,-1.5666211E-3,1.750168E-4,-2.1125717E-4,-6.93571E-5,8.023246E-5,1.8588407E-4,-2.3085682E-4,1.8002689E-3,3.541383E-4,-2.649805E-4,1.6592124E-4,-9.5962005E-4,-9.409885E-5,1.2345541E-4,-1.4402446E-3,8.715793E-4,4.244015E-5,1.7262345E-4,-1.9358483E-4,8.6107256E-4,3.3651113E-3,-2.0321574E-4,-1.3621947E-3,-7.49412E-4,1.4601503E-3,9.696809E-4,4.6105264E-4,-3.0498378E-4,1.686647E-4,-6.70044E-5,-6.338418E-4,-7.581807E-4,2.2882207E-4,7.73177E-5,-1.7469862E-4],"split_indices":[2098,2,719,526,10,3213,106,0,12,14,0,1023,15,2,13,13,24,0,0,1470,13,3,28,2758,15,0,0,15,10,1188,6,0,14,12,12,98,28,14,15,0,0,1470,0,28,1,0,13,3,0,1,1,9,7,6,9,0,0,0,13,3,0,965,965,0,0,0,0,0,0,0,0,0,0,0,0,0,0,0,0,0,0,0,0,0,0,0,0,0,0,0,0,0,0,0,0,0,0,0,0,0,0,0,0,0,0,0,0,0,0,0,0,0,0,0,0,0,0,0,0,0,0,0,0,0,0,0,0],"split_type":[0,0,0,0,0,0,0,0,0,0,0,0,0,0,0,0,0,0,0,0,0,0,0,0,0,0,0,0,0,0,0,0,0,0,0,0,0,0,0,0,0,0,0,0,0,0,0,0,0,0,0,0,0,0,0,0,0,0,0,0,0,0,0,0,0,0,0,0,0,0,0,0,0,0,0,0,0,0,0,0,0,0,0,0,0,0,0,0,0,0,0,0,0,0,0,0,0,0,0,0,0,0,0,0,0,0,0,0,0,0,0,0,0,0,0,0,0,0,0,0,0,0,0,0,0,0,0],"sum_hessian":[6.4998E4,4.055E3,6.0943E4,4.26E2,3.629E3,4.6217E4,1.4726E4,1.83E2,2.43E2,3.78E2,3.251E3,4.1188E4,5.029E3,7.34E2,1.3992E4,1.51E2,3.2E1,4.3E1,2E2,6.6E1,3.12E2,1.106E3,2.145E3,3.7137E4,4.051E3,9.8E2,4.049E3,7.6E1,6.58E2,2.748E3,1.1244E4,3.9E1,1.12E2,2E1,1.2E1,1.6E1,2.7E1,6.3E1,1.37E2,3.8E1,2.8E1,6.3E1,2.49E2,1.24E2,9.82E2,1.66E2,1.979E3,3.3367E4,3.77E3,8.06E2,3.245E3,8.35E2,1.45E2,1.378E3,2.671E3,1.2E1,6.4E1,8E1,5.78E2,2.232E3,5.16E2,1.098E3,1.0146E4,2.3E1,1.6E1,3.4E1,7.8E1,5E0,1.5E1,2E0,1E1,7E0,9E0,3E0,2.4E1,2E1,4.3E1,4E1,9.7E1,1.7E1,2.1E1,1.1E1,1.7E1,4.2E1,2.1E1,1.69E2,8E1,1.4E1,1.1E2,1.47E2,8.35E2,7.1E1,9.5E1,3.9E2,1.589E3,3.373E3,2.9994E4,1.255E3,2.515E3,6.6E1,7.4E2,3.39E2,2.906E3,9.3E1,7.42E2,2E1,1.25E2,1.31E2,1.247E3,2.83E2,2.388E3,1.1E1,1E0,3.4E1,3E1,6.7E1,1.3E1,1.09E2,4.69E2,2.27E2,2.005E3,3.41E2,1.75E2,1.63E2,9.35E2,1.338E3,8.808E3],"tree_param":{"num_deleted":"0","num_feature":"3370","num_nodes":"127","size_leaf_vector":"1"}},{"base_weights":[-1.2108658E-5,-2.7509076E-3,2.9711687E-4,1.1549097E-2,-3.4855034E-3,2.0592452E-3,-2.2603391E-4,-1.4450073E-2,1.7337697E-2,-2.441009E-3,-1.2581642E-2,2.996111E-3,-1.995332E-3,3.509131E-3,-5.860729E-4,-4.9332078E-3,-6.6773415E-2,1.146474E-2,3.469388E-2,-1.4250489E-2,-1.557208E-3,-2.2542786E-2,-9.890111E-3,8.262345E-3,2.3360131E-3,3.872118E-4,-6.7523136E-3,1.1508986E-3,5.8524674E-3,-4.513397E-3,-3.152572E-4,-2.4192076E-2,1.45154E-2,2.829051E-3,-4.4632675E-3,-5.303291E-3,1.7318297E-2,3.8942628E-2,-9.77397E-4,-3.8398355E-2,-8.379098E-3,-9.565897E-3,-5.1369274E-4,-3.426498E-2,-8.819923E-3,-1.8590972E-2,-7.0018643E-3,2.0875384E-3,1.5359644E-2,-1.4318157E-3,3.1552461E-3,9.436022E-3,-8.607383E-4,3.8089643E-3,-7.9716705E-3,1.1133137E-2,1.4964685E-6,1.0660087E-2,3.5854965E-3,5.7807346E-3,-5.8516846E-3,1.2487117E-3,-8.535851E-4,-2.8436994E-3,-1.7721792E-4,1.8422684E-3,-2.1581331E-4,6.281833E-4,-9.953433E-4,1.7581547E-4,1.2198237E-3,1.4971286E-3,2.0665159E-3,2.020521E-3,-2.623391E-3,1.4827673E-4,-2.4739075E-3,6.9895344E-5,-7.2421663E-4,2.0986325E-4,-6.4685085E-4,-7.3510926E-4,1.2997641E-7,-1.134845E-3,-3.0025113E-3,-6.99403E-4,2.0783073E-4,5.03026E-4,-1.6017115E-3,-6.569502E-4,-1.7259298E-4,-1.2568176E-4,5.883256E-4,1.0132783E-3,2.3586779E-4,8.0024824E-4,-1.7995322E-4,2.1648959E-4,-7.1233466E-5,-4.5550248E-4,6.825025E-4,-1.222464E-4,2.1060217E-4,9.0436835E-4,-5.959988E-4,7.6701246E-5,-5.110504E-4,1.0459361E-3,8.0843616E-5,4.874592E-4,-6.397254E-5,4.8395425E-5,7.8039797E-4,-9.453297E-5,3.0761334E-4,1.0696267E-3,-2.0507365E-4,1.94632E-4,-3.5987314E-4,-6.117744E-5,1.2480198E-4,2.9316801E-5,-7.843276E-5],"categories":[],"categories_nodes":[],"categories_segments":[],"categories_sizes":[],"default_left":[0,0,0,0,1,1,0,0,0,0,0,0,1,0,0,0,0,0,0,0,0,0,0,0,0,0,0,0,1,0,0,0,0,0,0,0,0,0,0,0,1,0,0,0,0,0,0,0,1,0,1,0,1,0,0,0,0,0,0,0,0,1,0,0,0,0,0,0,0,0,0,0,0,0,0,0,0,0,0,0,0,0,0,0,0,0,0,0,0,0,0,0,0,0,0,0,0,0,0,0,0,0,0,0,0,0,0,0,0,0,0,0,0,0,0,0,0,0,0,0,0,0,0],"id":4,"left_children":[1,3,5,7,9,11,13,15,17,19,21,23,25,27,29,31,33,35,37,39,41,43,45,47,49,51,53,55,57,59,61,63,65,-1,-1,67,69,71,73,75,77,79,81,83,85,87,89,91,93,95,97,99,101,103,105,107,109,111,113,115,117,119,121,-1,-1,-1,-1,-1,-1,-1,-1,-1,-1,-1,-1,-1,-1,-1,-1,-1,-1,-1,-1,-1,-1,-1,-1,-1,-1,-1,-1,-1,-1,-1,-1,-1,-1,-1,-1,-1,-1,-1,-1,-1,-1,-1,-1,-1,-1,-1,-1,-1,-1,-1,-1,-1,-1,-1,-1,-1,-1,-1,-1],"loss_changes":[5.480414E-2,6.900376E-2,5.360287E-2,4.8560657E-2,5.9302196E-2,5.056907E-2,6.029773E-2,2.9049892E-2,2.6410379E-2,5.84576E-2,1.7016336E-2,3.7569165E-2,2.8325573E-2,2.1777276E-2,4.3493714E-2,1.9453624E-2,3.0021034E-2,1.9526064E-2,1.00409165E-2,5.4973066E-2,4.356948E-2,2.1575026E-2,1.2635987E-2,5.2732565E-2,2.9667988E-2,1.8821366E-2,1.0770593E-2,2.2557095E-2,2.1508574E-2,3.6376268E-2,3.221155E-2,1.7343398E-2,1.1092307E-2,0E0,0E0,1.3818018E-2,1.4275074E-2,3.0331314E-5,1.916886E-2,3.4977786E-2,1.882288E-2,2.7939048E-2,3.3799473E-2,2.0411916E-2,4.3502725E-3,4.8853632E-2,8.299019E-3,2.8754417E-2,2.9142126E-2,6.494276E-2,4.2470515E-2,1.5911397E-2,1.1783402E-2,1.9754421E-2,1.600904E-2,1.8869985E-2,2.2038259E-2,3.034082E-2,1.8916992E-2,4.6988558E-2,3.06485E-2,3.0214254E-2,2.9306661E-2,0E0,0E0,0E0,0E0,0E0,0E0,0E0,0E0,0E0,0E0,0E0,0E0,0E0,0E0,0E0,0E0,0E0,0E0,0E0,0E0,0E0,0E0,0E0,0E0,0E0,0E0,0E0,0E0,0E0,0E0,0E0,0E0,0E0,0E0,0E0,0E0,0E0,0E0,0E0,0E0,0E0,0E0,0E0,0E0,0E0,0E0,0E0,0E0,0E0,0E0,0E0,0E0,0E0,0E0,0E0,0E0,0E0,0E0,0E0,0E0],"parents":[2147483647,0,0,1,1,2,2,3,3,4,4,5,5,6,6,7,7,8,8,9,9,10,10,11,11,12,12,13,13,14,14,15,15,16,16,17,17,18,18,19,19,20,20,21,21,22,22,23,23,24,24,25,25,26,26,27,27,28,28,29,29,30,30,31,31,32,32,35,35,36,36,37,37,38,38,39,39,40,40,41,41,42,42,43,43,44,44,45,45,46,46,47,47,48,48,49,49,50,50,51,51,52,52,53,53,54,54,55,55,56,56,57,57,58,58,59,59,60,60,61,61,62,62],"right_children":[2,4,6,8,10,12,14,16,18,20,22,24,26,28,30,32,34,36,38,40,42,44,46,48,50,52,54,56,58,60,62,64,66,-1,-1,68,70,72,74,76,78,80,82,84,86,88,90,92,94,96,98,100,102,104,106,108,110,112,114,116,118,120,122,-1,-1,-1,-1,-1,-1,-1,-1,-1,-1,-1,-1,-1,-1,-1,-1,-1,-1,-1,-1,-1,-1,-1,-1,-1,-1,-1,-1,-1,-1,-1,-1,-1,-1,-1,-1,-1,-1,-1,-1,-1,-1,-1,-1,-1,-1,-1,-1,-1,-1,-1,-1,-1,-1,-1,-1,-1,-1,-1,-1],"split_conditions":[2.00001E0,1.1222699E0,6.237764E-1,2.00001E0,8.424606E-2,6.5091826E-2,7.658848E-2,5.611299E-1,5.611299E-1,6.555397E-2,2.00001E0,2.00001E0,4E0,5.4871082E-2,6.997723E-2,4E0,2E0,2.00001E0,1.000001E1,2E0,6.3502796E-2,4E0,2.00001E0,1.3881719E-1,2E0,2.00001E0,2.00001E0,2.00001E0,2E0,2.00001E0,1.2775946E-1,2.00001E0,2.00001E0,2.829051E-3,-4.4632675E-3,2.00001E0,2.00001E0,2.00001E0,2.00001E0,2.00001E0,4.203917E-2,2.00001E0,2.9433197E-1,3E0,1.000001E1,4.559464E-2,2.00001E0,5E0,4E0,7.69635E-2,5E0,2.00001E0,3E0,5E0,2.00001E0,4E0,2.00001E0,2.00001E0,2.00001E0,7.6403886E-2,2.00001E0,2E0,3E0,-2.8436994E-3,-1.7721792E-4,1.8422684E-3,-2.1581331E-4,6.281833E-4,-9.953433E-4,1.7581547E-4,1.2198237E-3,1.4971286E-3,2.0665159E-3,2.020521E-3,-2.623391E-3,1.4827673E-4,-2.4739075E-3,6.9895344E-5,-7.2421663E-4,2.0986325E-4,-6.4685085E-4,-7.3510926E-4,1.2997641E-7,-1.134845E-3,-3.0025113E-3,-6.99403E-4,2.0783073E-4,5.03026E-4,-1.6017115E-3,-6.569502E-4,-1.7259298E-4,-1.2568176E-4,5.883256E-4,1.0132783E-3,2.3586779E-4,8.0024824E-4,-1.7995322E-4,2.1648959E-4,-7.1233466E-5,-4.5550248E-4,6.825025E-4,-1.222464E-4,2.1060217E-4,9.0436835E-4,-5.959988E-4,7.6701246E-5,-5.110504E-4,1.0459361E-3,8.0843616E-5,4.874592E-4,-6.397254E-5,4.8395425E-5,7.8039797E-4,-9.453297E-5,3.0761334E-4,1.0696267E-3,-2.0507365E-4,1.94632E-4,-3.5987314E-4,-6.117744E-5,1.2480198E-4,2.9316801E-5,-7.843276E-5],"split_indices":[5,119,2729,12,2964,2492,2808,119,119,937,13,8,0,2808,2098,0,0,15,0,0,1170,0,14,2729,0,1,3,9,0,2,3200,18,18,0,0,18,14,15,13,14,2070,15,1224,0,0,719,12,0,0,1130,0,14,0,0,13,0,2,19,17,337,8,0,0,0,0,0,0,0,0,0,0,0,0,0,0,0,0,0,0,0,0,0,0,0,0,0,0,0,0,0,0,0,0,0,0,0,0,0,0,0,0,0,0,0,0,0,0,0,0,0,0,0,0,0,0,0,0,0,0,0,0,0,0],"split_type":[0,0,0,0,0,0,0,0,0,0,0,0,0,0,0,0,0,0,0,0,0,0,0,0,0,0,0,0,0,0,0,0,0,0,0,0,0,0,0,0,0,0,0,0,0,0,0,0,0,0,0,0,0,0,0,0,0,0,0,0,0,0,0,0,0,0,0,0,0,0,0,0,0,0,0,0,0,0,0,0,0,0,0,0,0,0,0,0,0,0,0,0,0,0,0,0,0,0,0,0,0,0,0,0,0,0,0,0,0,0,0,0,0,0,0,0,0,0,0,0,0,0,0],"sum_hessian":[6.4709E4,6.564E3,5.8145E4,3.2E2,6.244E3,1.331E4,4.4835E4,5.8E1,2.62E2,5.602E3,6.42E2,1.0812E4,2.498E3,3.941E3,4.0894E4,5E1,8E0,1.97E2,6.5E1,3.89E2,5.213E3,1.35E2,5.07E2,1.203E3,9.609E3,1.665E3,8.33E2,1.965E3,1.976E3,2.637E3,3.8257E4,2.5E1,2.5E1,1E0,7E0,5.1E1,1.46E2,5.8E1,7E0,7.5E1,3.14E2,6E2,4.613E3,7.2E1,6.3E1,1.25E2,3.82E2,6.44E2,5.59E2,1.716E3,7.893E3,2.01E2,1.464E3,8.6E1,7.47E2,2.02E2,1.763E3,6.32E2,1.344E3,3.03E2,2.334E3,9.796E3,2.8461E4,9E0,1.6E1,1.1E1,1.4E1,2.3E1,2.8E1,5E1,9.6E1,1.5E1,4.3E1,4E0,3E0,1.6E1,5.9E1,1.21E2,1.93E2,1.18E2,4.82E2,1.61E2,4.452E3,5.1E1,2.1E1,4.5E1,1.8E1,4E1,8.5E1,1.39E2,2.43E2,4.37E2,2.07E2,3.82E2,1.77E2,1.89E2,1.527E3,6.282E3,1.611E3,3.7E1,1.64E2,1.116E3,3.48E2,4.5E1,4.1E1,1.43E2,6.04E2,9.9E1,1.03E2,2.04E2,1.559E3,2.14E2,4.18E2,4.29E2,9.15E2,1.17E2,1.86E2,2.83E2,2.051E3,3.285E3,6.511E3,9.444E3,1.9017E4],"tree_param":{"num_deleted":"0","num_feature":"3370","num_nodes":"123","size_leaf_vector":"1"}},{"base_weights":[1.06074236E-4,-2.871657E-3,4.4591716E-4,1.3109322E-2,-3.6951469E-3,4.855121E-3,2.623599E-4,-9.012663E-3,1.8547565E-2,-4.7125085E-3,9.343147E-3,7.4937526E-4,9.125736E-3,-9.026133E-6,3.635722E-3,-4.5209408E-2,-8.020401E-4,2.9408684E-2,1.44346105E-2,-6.4312196E-3,1.5945473E-3,1.316042E-2,4.8796565E-4,9.945831E-3,-1.3861227E-3,3.9571067E-3,1.2819435E-2,-1.8118088E-3,4.453109E-4,5.5803386E-3,-3.7772374E-4,1.5554746E-3,-6.3584134E-2,-3.5997216E-2,8.014983E-3,3.5357352E-2,-1.5499645E-2,1.9962067E-2,3.0677915E-3,-1.0817456E-2,-4.314284E-3,1.1053412E-2,-4.3389143E-4,1.2433493E-3,1.6252086E-2,-1.2167391E-2,2.9716003E-3,2.854228E-2,6.810949E-3,-1.7595375E-2,3.0122374E-4,-2.895537E-2,8.052175E-3,2.1052624E-3,1.5320141E-2,-1.2226062E-3,-1.1555399E-2,6.587796E-3,1.6796621E-4,1.0031465E-2,4.497612E-3,6.552951E-3,-1.7209706E-3,-1.6849613E-3,-3.8945437E-3,-2.6817226E-3,-9.128367E-4,1.8392255E-3,-2.6181282E-4,9.297898E-4,2.082437E-3,1.9249916E-3,-1.353103E-3,2.0333247E-3,6.498872E-4,-5.7366345E-4,1.10866E-3,-1.823548E-6,-6.2428083E-4,-5.432517E-4,-1.3199216E-4,-8.1520696E-4,7.706473E-4,8.8557914E-5,-5.4298976E-4,9.168421E-4,-1.6056608E-4,1.474146E-3,6.5130263E-4,1.8085766E-3,-1.2123886E-3,4.4070263E-4,-1.0021999E-4,2.119162E-3,-3.0730726E-4,1.6825717E-4,7.590388E-4,-1.2620346E-4,-1.1957072E-3,2.2691302E-4,-3.8160264E-4,-2.9870986E-3,-1.0203173E-3,-6.4010336E-4,5.4019655E-4,2.0329528E-3,-2.1113396E-4,1.3514971E-3,6.9259765E-4,-3.6528185E-5,-5.4537866E-4,-1.3297352E-4,-8.032174E-4,-3.963205E-4,4.2686355E-4,-7.754942E-5,3.6798676E-5,1.219774E-3,3.3458616E-4,-8.2498525E-5,2.9806318E-4,-1.2706881E-3,5.1073334E-4,-4.354592E-4,-4.489737E-5],"categories":[],"categories_nodes":[],"categories_segments":[],"categories_sizes":[],"default_left":[0,0,0,0,1,0,1,0,0,1,0,0,0,0,0,0,0,0,1,0,0,0,0,0,0,0,0,1,0,0,0,0,0,0,1,0,0,0,0,0,0,0,1,0,0,0,0,0,0,0,0,0,0,0,0,1,1,0,0,0,0,0,0,0,0,0,0,0,0,0,0,0,0,0,0,0,0,0,0,0,0,0,0,0,0,0,0,0,0,0,0,0,0,0,0,0,0,0,0,0,0,0,0,0,0,0,0,0,0,0,0,0,0,0,0,0,0,0,0,0,0,0,0,0,0],"id":5,"left_children":[1,3,5,7,9,11,13,15,17,19,21,23,25,27,29,31,33,35,37,39,41,43,45,47,49,51,53,55,57,59,61,-1,63,65,67,69,71,73,75,77,79,81,83,85,87,89,91,93,95,97,99,101,103,105,107,109,111,113,115,117,119,121,123,-1,-1,-1,-1,-1,-1,-1,-1,-1,-1,-1,-1,-1,-1,-1,-1,-1,-1,-1,-1,-1,-1,-1,-1,-1,-1,-1,-1,-1,-1,-1,-1,-1,-1,-1,-1,-1,-1,-1,-1,-1,-1,-1,-1,-1,-1,-1,-1,-1,-1,-1,-1,-1,-1,-1,-1,-1,-1,-1,-1,-1,-1],"loss_changes":[6.567451E-2,8.753729E-2,4.7142863E-2,3.93865E-2,8.391646E-2,4.081245E-2,5.119661E-2,1.9281596E-2,1.1279367E-2,6.359774E-2,1.5475191E-2,2.3344932E-2,2.173251E-2,4.2395916E-2,3.250052E-2,1.880614E-2,1.7045617E-2,1.9515317E-2,1.2002043E-2,4.275891E-2,2.412251E-2,1.1769749E-2,4.405105E-3,1.2864279E-2,2.6398651E-2,6.452266E-2,1.7785095E-2,5.9800807E-2,7.042852E-2,1.3473168E-2,1.2672342E-2,0E0,1.650691E-3,2.4626357E-3,1.6966816E-2,5.8690757E-3,6.6611636E-3,1.8072229E-2,1.8034426E-2,2.6976183E-2,3.4095388E-2,2.6728388E-2,2.3836495E-2,5.160659E-3,1.0457471E-2,1.430799E-2,3.4190957E-3,1.5624367E-2,5.515187E-3,8.605758E-3,2.9446522E-2,1.2730241E-2,2.4527261E-2,3.1155393E-2,8.892179E-3,4.6817E-2,2.3783393E-2,5.0602697E-2,3.8623758E-2,2.6125468E-2,2.0327143E-2,2.6128307E-2,6.548845E-3,0E0,0E0,0E0,0E0,0E0,0E0,0E0,0E0,0E0,0E0,0E0,0E0,0E0,0E0,0E0,0E0,0E0,0E0,0E0,0E0,0E0,0E0,0E0,0E0,0E0,0E0,0E0,0E0,0E0,0E0,0E0,0E0,0E0,0E0,0E0,0E0,0E0,0E0,0E0,0E0,0E0,0E0,0E0,0E0,0E0,0E0,0E0,0E0,0E0,0E0,0E0,0E0,0E0,0E0,0E0,0E0,0E0,0E0,0E0,0E0,0E0,0E0],"parents":[2147483647,0,0,1,1,2,2,3,3,4,4,5,5,6,6,7,7,8,8,9,9,10,10,11,11,12,12,13,13,14,14,15,15,16,16,17,17,18,18,19,19,20,20,21,21,22,22,23,23,24,24,25,25,26,26,27,27,28,28,29,29,30,30,32,32,33,33,34,34,35,35,36,36,37,37,38,38,39,39,40,40,41,41,42,42,43,43,44,44,45,45,46,46,47,47,48,48,49,49,50,50,51,51,52,52,53,53,54,54,55,55,56,56,57,57,58,58,59,59,60,60,61,61,62,62],"right_children":[2,4,6,8,10,12,14,16,18,20,22,24,26,28,30,32,34,36,38,40,42,44,46,48,50,52,54,56,58,60,62,-1,64,66,68,70,72,74,76,78,80,82,84,86,88,90,92,94,96,98,100,102,104,106,108,110,112,114,116,118,120,122,124,-1,-1,-1,-1,-1,-1,-1,-1,-1,-1,-1,-1,-1,-1,-1,-1,-1,-1,-1,-1,-1,-1,-1,-1,-1,-1,-1,-1,-1,-1,-1,-1,-1,-1,-1,-1,-1,-1,-1,-1,-1,-1,-1,-1,-1,-1,-1,-1,-1,-1,-1,-1,-1,-1,-1,-1,-1,-1,-1,-1,-1,-1],"split_conditions":[2.00001E0,1.1222699E0,1.9049498E-1,2.00001E0,6.2156208E-2,4E0,9.514584E-2,2.00001E0,2.00001E0,1.01860926E-1,5E0,2.00001E0,2.00001E0,2.00001E0,5E0,2E0,2E0,1.000001E1,4E0,7.358124E-2,1.3614881E-1,2.00001E0,2.00001E0,2.00001E0,2.00001E0,2.00001E0,2.00001E0,6.909844E-2,5.828696E-2,2.00001E0,2.00001E0,1.5554746E-3,4E0,2.00001E0,3E0,2.00001E0,2.00001E0,2.00001E0,2.00001E0,3.9265245E-1,3.9285727E-2,2E0,5E0,2.00001E0,2.00001E0,2.00001E0,2.00001E0,3E0,3E0,2.00001E0,3E0,2.00001E0,2.00001E0,2.00001E0,2.00001E0,5.810789E-2,2E0,2.00001E0,2.00001E0,2.00001E0,2.00001E0,2.00001E0,2.00001E0,-1.6849613E-3,-3.8945437E-3,-2.6817226E-3,-9.128367E-4,1.8392255E-3,-2.6181282E-4,9.297898E-4,2.082437E-3,1.9249916E-3,-1.353103E-3,2.0333247E-3,6.498872E-4,-5.7366345E-4,1.10866E-3,-1.823548E-6,-6.2428083E-4,-5.432517E-4,-1.3199216E-4,-8.1520696E-4,7.706473E-4,8.8557914E-5,-5.4298976E-4,9.168421E-4,-1.6056608E-4,1.474146E-3,6.5130263E-4,1.8085766E-3,-1.2123886E-3,4.4070263E-4,-1.0021999E-4,2.119162E-3,-3.0730726E-4,1.6825717E-4,7.590388E-4,-1.2620346E-4,-1.1957072E-3,2.2691302E-4,-3.8160264E-4,-2.9870986E-3,-1.0203173E-3,-6.4010336E-4,5.4019655E-4,2.0329528E-3,-2.1113396E-4,1.3514971E-3,6.9259765E-4,-3.6528185E-5,-5.4537866E-4,-1.3297352E-4,-8.032174E-4,-3.963205E-4,4.2686355E-4,-7.754942E-5,3.6798676E-5,1.219774E-3,3.3458616E-4,-8.2498525E-5,2.9806318E-4,-1.2706881E-3,5.1073334E-4,-4.354592E-4,-4.489737E-5],"split_indices":[5,119,2314,12,2253,0,2670,21,21,2619,0,15,39,11,0,0,0,0,0,999,2619,30,14,2,3,3,15,3299,2361,13,44,0,0,18,0,14,14,11,18,1364,1470,0,0,14,12,30,95,0,0,14,0,11,7,10,4,1495,0,2,12,35,35,3,9,0,0,0,0,0,0,0,0,0,0,0,0,0,0,0,0,0,0,0,0,0,0,0,0,0,0,0,0,0,0,0,0,0,0,0,0,0,0,0,0,0,0,0,0,0,0,0,0,0,0,0,0,0,0,0,0,0,0,0,0,0,0],"split_type":[0,0,0,0,0,0,0,0,0,0,0,0,0,0,0,0,0,0,0,0,0,0,0,0,0,0,0,0,0,0,0,0,0,0,0,0,0,0,0,0,0,0,0,0,0,0,0,0,0,0,0,0,0,0,0,0,0,0,0,0,0,0,0,0,0,0,0,0,0,0,0,0,0,0,0,0,0,0,0,0,0,0,0,0,0,0,0,0,0,0,0,0,0,0,0,0,0,0,0,0,0,0,0,0,0,0,0,0,0,0,0,0,0,0,0,0,0,0,0,0,0,0,0,0,0],"sum_hessian":[6.4896E4,6.647E3,5.8249E4,3.25E2,6.322E3,2.327E3,5.5922E4,6.4E1,2.61E2,5.865E3,4.57E2,1.187E3,1.14E3,5.1759E4,4.163E3,1.1E1,5.3E1,7E1,1.91E2,4.609E3,1.256E3,3.19E2,1.38E2,2.23E2,9.64E2,4.76E2,6.64E2,1.0418E4,4.1341E4,2.804E3,1.359E3,2E0,9E0,1E1,4.3E1,6.2E1,8E0,1.28E2,6.3E1,1.499E3,3.11E3,2.21E2,1.035E3,6.6E1,2.53E2,2.2E1,1.16E2,3.1E1,1.92E2,9E1,8.74E2,5.2E1,4.24E2,1.26E2,5.38E2,9.825E3,5.93E2,1.785E3,3.9556E4,5.47E2,2.257E3,2.2E2,1.139E3,4E0,5E0,4E0,6E0,1.3E1,3E1,1.8E1,4.4E1,1E0,7E0,3.1E1,9.7E1,3.6E1,2.7E1,2.01E2,1.298E3,6.32E2,2.478E3,3E1,1.91E2,8.55E2,1.8E2,1.3E1,5.3E1,4.8E1,2.05E2,4E0,1.8E1,5.3E1,6.3E1,2.2E1,9E0,1.37E2,5.5E1,2.7E1,6.3E1,5.7E2,3.04E2,1E1,4.2E1,4.9E1,3.75E2,1.7E1,1.09E2,5.8E1,4.8E2,9.351E3,4.74E2,2E2,3.93E2,2.11E2,1.574E3,9.824E3,2.9732E4,1.02E2,4.45E2,4.34E2,1.823E3,2.2E1,1.98E2,1.19E2,1.02E3],"tree_param":{"num_deleted":"0","num_feature":"3370","num_nodes":"125","size_leaf_vector":"1"}},{"base_weights":[-6.545943E-5,-2.7370846E-4,3.7756946E-3,5.095826E-3,-4.0816114E-4,-3.7528458E-3,4.6469797E-3,-4.4771987E-3,6.2619066E-3,3.050087E-3,-6.0700247E-4,5.82104E-3,-6.193254E-3,-1.4784877E-3,5.4610237E-3,-2.6200918E-2,1.8798604E-4,1.3984355E-2,5.114688E-3,-5.1313695E-3,3.9276183E-3,3.320028E-3,-7.7613996E-4,-2.98108E-4,4.820488E-4,4.4222428E-3,-8.608354E-3,1.893875E-2,-5.9948363E-3,-1.1525098E-3,6.4280285E-3,-1.5908898E-3,-8.95507E-4,1.1911039E-2,-7.4413256E-3,1.7359579E-3,7.690501E-3,1.1422558E-2,4.2670593E-3,1.7990365E-3,-1.028194E-2,9.764688E-3,2.4931594E-3,1.27486745E-2,2.3632233E-3,-5.115734E-4,-3.0129538E-3,-9.585659E-4,1.1219815E-2,-1.41374385E-2,-6.7473184E-3,5.077328E-4,1.7077923E-3,-6.4106757E-4,-4.11221E-3,9.655022E-3,-7.2233225E-3,9.6106605E-4,7.295666E-3,1.119245E-3,3.842783E-4,-1.9787566E-3,-1.73935E-5,6.774169E-4,1.0706084E-4,1.4815736E-3,-4.4453362E-4,4.4880067E-5,3.6589045E-4,7.3307415E-4,-7.607915E-5,-1.3023154E-3,-3.561843E-4,8.382603E-4,1.7412606E-4,-2.2182109E-4,1.6615042E-4,1.6908046E-3,-7.113351E-6,-1.5479625E-4,1.8109527E-4,-2.4844447E-4,-1.9014667E-5,-2.1708927E-6,-2.0218718E-4,7.387519E-4,3.738902E-4,-1.6063055E-5,-9.367591E-4,-8.181656E-4,-1.3192666E-4,-1.348889E-4,-2.617908E-4,-2.570576E-4,6.857937E-4,3.648645E-4,-5.124328E-4,-7.5227564E-4,2.574726E-4,5.248518E-4,3.205873E-4],"categories":[],"categories_nodes":[],"categories_segments":[],"categories_sizes":[],"default_left":[1,0,0,0,0,0,0,0,0,0,0,0,0,0,0,0,0,0,0,0,0,0,1,0,0,0,0,0,0,0,0,0,0,0,0,0,0,0,0,0,0,0,0,0,0,0,0,0,0,0,0,0,0,0,0,0,0,0,0,0,0,0,0,0,0,0,0,0,0,0,0,0,0,0,0,0,0,0,0,0,0,0,0,0,0,0,0,0,0,0,0,0,0,0,0,0,0,0,0,0,0],"id":6,"left_children":[1,3,5,7,9,11,13,15,17,19,21,23,25,27,29,31,33,35,37,39,41,43,45,-1,-1,47,49,51,53,55,57,-1,-1,59,61,-1,63,65,67,69,71,73,75,77,79,81,83,-1,85,87,89,-1,-1,-1,91,93,95,97,99,-1,-1,-1,-1,-1,-1,-1,-1,-1,-1,-1,-1,-1,-1,-1,-1,-1,-1,-1,-1,-1,-1,-1,-1,-1,-1,-1,-1,-1,-1,-1,-1,-1,-1,-1,-1,-1,-1,-1,-1,-1,-1],"loss_changes":[5.1951613E-2,4.4478428E-2,2.1926187E-2,1.6828232E-2,4.1330554E-2,8.143424E-3,1.4937349E-2,1.6625531E-2,1.1817705E-2,2.3482703E-2,3.7752844E-2,3.2532671E-3,7.139652E-3,3.257193E-2,1.691024E-2,7.806197E-4,1.2252314E-2,2.2309806E-2,6.2069315E-3,1.1333987E-2,2.4692863E-2,2.1143036E-2,3.22443E-2,0E0,0E0,8.554803E-3,2.2301115E-3,8.207938E-3,3.6614398E-3,2.224609E-2,1.0931127E-2,0E0,0E0,2.2178385E-3,1.8905232E-2,0E0,4.3269014E-3,5.1307134E-2,1.0612022E-2,5.831044E-3,8.875849E-3,2.5537055E-2,1.36491945E-2,5.866585E-2,1.4660893E-2,2.8511038E-2,1.764017E-2,0E0,4.3496583E-4,3.551282E-3,6.713045E-3,0E0,0E0,0E0,3.4822733E-4,7.4008927E-3,9.607529E-3,2.1329701E-2,5.5639073E-3,0E0,0E0,0E0,0E0,0E0,0E0,0E0,0E0,0E0,0E0,0E0,0E0,0E0,0E0,0E0,0E0,0E0,0E0,0E0,0E0,0E0,0E0,0E0,0E0,0E0,0E0,0E0,0E0,0E0,0E0,0E0,0E0,0E0,0E0,0E0,0E0,0E0,0E0,0E0,0E0,0E0,0E0],"parents":[2147483647,0,0,1,1,2,2,3,3,4,4,5,5,6,6,7,7,8,8,9,9,10,10,11,11,12,12,13,13,14,14,15,15,16,16,17,17,18,18,19,19,20,20,21,21,22,22,25,25,26,26,27,27,28,28,29,29,30,30,33,33,34,34,36,36,37,37,38,38,39,39,40,40,41,41,42,42,43,43,44,44,45,45,46,46,48,48,49,49,50,50,54,54,55,55,56,56,57,57,58,58],"right_children":[2,4,6,8,10,12,14,16,18,20,22,24,26,28,30,32,34,36,38,40,42,44,46,-1,-1,48,50,52,54,56,58,-1,-1,60,62,-1,64,66,68,70,72,74,76,78,80,82,84,-1,86,88,90,-1,-1,-1,92,94,96,98,100,-1,-1,-1,-1,-1,-1,-1,-1,-1,-1,-1,-1,-1,-1,-1,-1,-1,-1,-1,-1,-1,-1,-1,-1,-1,-1,-1,-1,-1,-1,-1,-1,-1,-1,-1,-1,-1,-1,-1,-1,-1,-1],"split_conditions":[5.569534E-2,2.2132002E-1,2.00001E0,2.00001E0,1.5778032E-1,2.00001E0,2.00001E0,2.00001E0,2.00001E0,2.00001E0,1.7993078E-1,2.00001E0,2.00001E0,2.00001E0,2.00001E0,2.00001E0,2.00001E0,2.00001E0,2.00001E0,7.462016E-2,2.00001E0,2.00001E0,6.008635E-2,-2.98108E-4,4.820488E-4,2.00001E0,2.00001E0,2.825644E-1,2.00001E0,2.00001E0,2.00001E0,-1.5908898E-3,-8.95507E-4,2.00001E0,2.00001E0,1.7359579E-3,2.00001E0,2.00001E0,2.00001E0,2.00001E0,2.00001E0,2.00001E0,2.00001E0,2.00001E0,2.00001E0,7.911738E-2,2.00001E0,-9.585659E-4,2.00001E0,2.00001E0,2.00001E0,5.077328E-4,1.7077923E-3,-6.4106757E-4,2.00001E0,2.00001E0,2.00001E0,2.00001E0,2.00001E0,1.119245E-3,3.842783E-4,-1.9787566E-3,-1.73935E-5,6.774169E-4,1.0706084E-4,1.4815736E-3,-4.4453362E-4,4.4880067E-5,3.6589045E-4,7.3307415E-4,-7.607915E-5,-1.3023154E-3,-3.561843E-4,8.382603E-4,1.7412606E-4,-2.2182109E-4,1.6615042E-4,1.6908046E-3,-7.113351E-6,-1.5479625E-4,1.8109527E-4,-2.4844447E-4,-1.9014667E-5,-2.1708927E-6,-2.0218718E-4,7.387519E-4,3.738902E-4,-1.6063055E-5,-9.367591E-4,-8.181656E-4,-1.3192666E-4,-1.348889E-4,-2.617908E-4,-2.570576E-4,6.857937E-4,3.648645E-4,-5.124328E-4,-7.5227564E-4,2.574726E-4,5.248518E-4,3.205873E-4],"split_indices":[1023,2749,9,9,640,49,1,15,10,5,1862,12,12,15,5,26,26,15,8,640,12,7,2893,0,0,44,15,265,72,22,7,0,0,12,12,0,26,26,26,12,15,26,6,19,12,2655,25,0,22,31,31,0,0,0,22,15,15,49,15,0,0,0,0,0,0,0,0,0,0,0,0,0,0,0,0,0,0,0,0,0,0,0,0,0,0,0,0,0,0,0,0,0,0,0,0,0,0,0,0,0,0],"split_type":[0,0,0,0,0,0,0,0,0,0,0,0,0,0,0,0,0,0,0,0,0,0,0,0,0,0,0,0,0,0,0,0,0,0,0,0,0,0,0,0,0,0,0,0,0,0,0,0,0,0,0,0,0,0,0,0,0,0,0,0,0,0,0,0,0,0,0,0,0,0,0,0,0,0,0,0,0,0,0,0,0,0,0,0,0,0,0,0,0,0,0,0,0,0,0,0,0,0,0,0,0],"sum_hessian":[6.4944E4,6.1605E4,3.339E3,1.504E3,6.0101E4,3.46E2,2.993E3,1.63E2,1.341E3,3.267E3,5.6834E4,7E1,2.76E2,3.51E2,2.642E3,2.8E1,1.35E2,1.72E2,1.169E3,3.16E2,2.951E3,2.346E3,5.4488E4,1.7E1,5.3E1,5.1E1,2.25E2,6.3E1,2.88E2,3.37E2,2.305E3,1.5E1,1.3E1,5.3E1,8.2E1,3.9E1,1.33E2,1.37E2,1.032E3,1.35E2,1.81E2,5.81E2,2.37E3,2.15E2,2.131E3,4.8726E4,5.762E3,1.1E1,4E1,5.5E1,1.7E2,4.1E1,2.2E1,6.1E1,2.27E2,1.21E2,2.16E2,3.16E2,1.989E3,1.4E1,3.9E1,1.4E1,6.8E1,6.4E1,6.9E1,7.2E1,6.5E1,4.91E2,5.41E2,2.7E1,1.08E2,2.9E1,1.52E2,2.74E2,3.07E2,2.53E2,2.117E3,8.1E1,1.34E2,3.99E2,1.732E3,1.393E3,4.7333E4,1.485E3,4.277E3,1.9E1,2.1E1,1.4E1,4.1E1,5E1,1.2E2,1.02E2,1.25E2,2.6E1,9.5E1,3.7E1,1.79E2,6.5E1,2.51E2,4.28E2,1.561E3],"tree_param":{"num_deleted":"0","num_feature":"3370","num_nodes":"101","size_leaf_vector":"1"}},{"base_weights":[3.009811E-4,1.6715098E-4,4.9617775E-3,-3.956157E-3,2.8565148E-4,1.5474724E-2,3.6347988E-3,-1.8768627E-2,-2.4474924E-3,4.5621634E-4,-2.5316204E-3,2.109286E-2,-1.20949885E-2,1.3190149E-2,2.3564072E-3,-1.07889E-2,-3.4676056E-2,-1.2353481E-2,-8.1934246E-5,3.4798298E-4,4.5177964E-3,3.8597416E-3,-4.031799E-3,1.058478E-2,2.6069699E-2,3.1314988E-2,-2.215619E-2,2.6007392E-2,4.417185E-3,1.0073001E-2,1.2662816E-3,3.4792582E-3,-1.5940206E-2,-3.6277254E-3,-2.3298906E-2,-1.0441528E-3,-2.5304833E-2,1.8165234E-3,-1.0485072E-2,2.7095499E-3,1.542218E-4,-1.5045917E-2,6.3188667E-3,1.3650944E-2,2.596243E-3,-1.2832631E-2,-3.0680094E-3,3.2627262E-2,-3.0723047E-2,4.7951896E-2,2.001209E-2,2.6679325E-3,-7.9313916E-4,-5.2359853E-2,-1.2000457E-2,1.7249202E-2,4.071818E-2,-3.060272E-3,2.3673803E-2,-3.3507654E-3,1.722257E-2,2.807946E-3,-6.874492E-3,2.0969391E-3,-2.025311E-4,-2.1687986E-3,-4.7799796E-4,-2.970886E-4,-2.245549E-3,-1.6931439E-3,2.3705725E-4,-3.1144589E-3,-1.0260734E-3,-9.212216E-4,2.0925251E-4,1.1692982E-3,-7.5092586E-4,2.671626E-4,6.6276916E-5,2.0495198E-5,-1.06015046E-4,-1.8668345E-3,-3.8834751E-4,-1.1780355E-4,4.2676096E-4,2.1321808E-3,-1.5974433E-4,-2.9958706E-4,2.0942079E-4,-1.4402055E-3,-2.8020082E-4,-6.0102135E-5,-3.408036E-4,6.3415256E-4,2.1450957E-3,1.0247112E-3,-2.0483467E-3,3.5537959E-3,1.1459021E-3,6.847866E-4,1.6521882E-3,-3.7266572E-3,-1.4291954E-3,-1.096681E-3,2.9440987E-4,-3.9869943E-4,1.2283949E-3,1.0500717E-3,2.4476177E-3,-1.2975757E-3,9.802183E-5,2.678193E-3,5.7393115E-4,-2.4146081E-3,2.9063225E-5,2.1154815E-3,4.3311281E-4,6.673602E-4,5.9260965E-5,-1.2776497E-3,-1.15359355E-4],"categories":[],"categories_nodes":[],"categories_segments":[],"categories_sizes":[],"default_left":[1,0,0,0,1,0,0,0,0,1,0,0,0,0,0,0,0,0,1,0,0,0,0,0,0,0,0,0,1,0,1,0,0,0,0,0,0,0,0,0,1,0,0,1,0,0,1,0,0,0,0,0,0,0,0,0,0,0,0,0,0,0,0,0,0,0,0,0,0,0,0,0,0,0,0,0,0,0,0,0,0,0,0,0,0,0,0,0,0,0,0,0,0,0,0,0,0,0,0,0,0,0,0,0,0,0,0,0,0,0,0,0,0,0,0,0,0,0,0,0,0],"id":7,"left_children":[1,3,5,7,9,11,13,15,17,19,21,23,25,27,29,31,33,35,37,39,41,43,45,47,49,51,53,55,57,59,61,63,65,-1,67,69,71,73,75,77,79,81,83,85,87,89,91,93,95,97,99,-1,-1,101,103,105,107,109,111,113,115,117,119,-1,-1,-1,-1,-1,-1,-1,-1,-1,-1,-1,-1,-1,-1,-1,-1,-1,-1,-1,-1,-1,-1,-1,-1,-1,-1,-1,-1,-1,-1,-1,-1,-1,-1,-1,-1,-1,-1,-1,-1,-1,-1,-1,-1,-1,-1,-1,-1,-1,-1,-1,-1,-1,-1,-1,-1,-1,-1],"loss_changes":[4.0537007E-2,3.0870298E-2,2.5249884E-2,3.93966E-2,2.9511796E-2,3.1697873E-2,1.9660275E-2,2.03166E-2,3.7562393E-2,2.5454696E-2,3.3631735E-2,8.562252E-3,1.5980298E-2,2.1249712E-2,1.1957603E-2,8.1404215E-3,2.15808E-2,4.523315E-2,2.5595188E-2,2.5809836E-2,5.305421E-2,8.216131E-3,2.4049934E-2,5.1991917E-2,1.4151521E-2,8.126212E-3,8.267127E-3,9.218313E-3,1.648737E-2,1.6949154E-2,1.5682127E-2,8.857746E-3,1.3764132E-2,0E0,1.586347E-2,3.167832E-2,2.4196737E-2,5.2620713E-2,3.1061715E-2,1.55829005E-2,3.0317323E-2,2.031624E-2,2.6495308E-2,3.725507E-2,8.119838E-3,3.216505E-2,1.7902827E-2,7.0379116E-3,1.1332858E-2,1.2264274E-2,7.0379004E-3,0E0,0E0,1.559889E-3,4.21604E-3,9.425947E-3,3.5177618E-3,9.5900865E-3,1.1049628E-2,1.0984146E-2,2.4330113E-2,1.7941631E-2,1.6917817E-2,0E0,0E0,0E0,0E0,0E0,0E0,0E0,0E0,0E0,0E0,0E0,0E0,0E0,0E0,0E0,0E0,0E0,0E0,0E0,0E0,0E0,0E0,0E0,0E0,0E0,0E0,0E0,0E0,0E0,0E0,0E0,0E0,0E0,0E0,0E0,0E0,0E0,0E0,0E0,0E0,0E0,0E0,0E0,0E0,0E0,0E0,0E0,0E0,0E0,0E0,0E0,0E0,0E0,0E0,0E0,0E0,0E0,0E0],"parents":[2147483647,0,0,1,1,2,2,3,3,4,4,5,5,6,6,7,7,8,8,9,9,10,10,11,11,12,12,13,13,14,14,15,15,16,16,17,17,18,18,19,19,20,20,21,21,22,22,23,23,24,24,25,25,26,26,27,27,28,28,29,29,30,30,31,31,32,32,34,34,35,35,36,36,37,37,38,38,39,39,40,40,41,41,42,42,43,43,44,44,45,45,46,46,47,47,48,48,49,49,50,50,53,53,54,54,55,55,56,56,57,57,58,58,59,59,60,60,61,61,62,62],"right_children":[2,4,6,8,10,12,14,16,18,20,22,24,26,28,30,32,34,36,38,40,42,44,46,48,50,52,54,56,58,60,62,64,66,-1,68,70,72,74,76,78,80,82,84,86,88,90,92,94,96,98,100,-1,-1,102,104,106,108,110,112,114,116,118,120,-1,-1,-1,-1,-1,-1,-1,-1,-1,-1,-1,-1,-1,-1,-1,-1,-1,-1,-1,-1,-1,-1,-1,-1,-1,-1,-1,-1,-1,-1,-1,-1,-1,-1,-1,-1,-1,-1,-1,-1,-1,-1,-1,-1,-1,-1,-1,-1,-1,-1,-1,-1,-1,-1,-1,-1,-1,-1],"split_conditions":[9.17392E-2,1.9721742E-1,2.00001E0,2.00001E0,1.066585E-1,1.000001E1,2.00001E0,5E0,2.00001E0,7.709054E-2,2.00001E0,3E0,2.00001E0,3E0,2.00001E0,2E0,2.00001E0,4E0,5E0,4.8587713E-2,2.00001E0,2.00001E0,2.00001E0,2.00001E0,2.00001E0,2.00001E0,2.00001E0,2.00001E0,5E0,3E0,5E0,2.00001E0,2.00001E0,-3.6277254E-3,2.00001E0,2.00001E0,2.00001E0,2.00001E0,2.00001E0,3E0,9.7765155E-2,2.00001E0,2.00001E0,3E0,2E0,3E0,4E0,2.00001E0,2.00001E0,5E0,5E0,2.6679325E-3,-7.9313916E-4,2.00001E0,2.00001E0,2.00001E0,2.00001E0,2.00001E0,2.00001E0,2.00001E0,4E0,2.00001E0,2.00001E0,2.0969391E-3,-2.025311E-4,-2.1687986E-3,-4.7799796E-4,-2.970886E-4,-2.245549E-3,-1.6931439E-3,2.3705725E-4,-3.1144589E-3,-1.0260734E-3,-9.212216E-4,2.0925251E-4,1.1692982E-3,-7.5092586E-4,2.671626E-4,6.6276916E-5,2.0495198E-5,-1.06015046E-4,-1.8668345E-3,-3.8834751E-4,-1.1780355E-4,4.2676096E-4,2.1321808E-3,-1.5974433E-4,-2.9958706E-4,2.0942079E-4,-1.4402055E-3,-2.8020082E-4,-6.0102135E-5,-3.408036E-4,6.3415256E-4,2.1450957E-3,1.0247112E-3,-2.0483467E-3,3.5537959E-3,1.1459021E-3,6.847866E-4,1.6521882E-3,-3.7266572E-3,-1.4291954E-3,-1.096681E-3,2.9440987E-4,-3.9869943E-4,1.2283949E-3,1.0500717E-3,2.4476177E-3,-1.2975757E-3,9.802183E-5,2.678193E-3,5.7393115E-4,-2.4146081E-3,2.9063225E-5,2.1154815E-3,4.3311281E-4,6.673602E-4,5.9260965E-5,-1.2776497E-3,-1.15359355E-4],"split_indices":[2640,2109,2,4,2344,0,6,0,12,1566,13,0,14,0,4,0,15,0,0,3083,10,8,3,30,12,30,15,30,0,0,0,11,11,0,24,5,8,5,5,0,3034,15,12,0,0,0,0,12,14,0,0,0,0,30,30,11,15,14,15,14,0,3,12,0,0,0,0,0,0,0,0,0,0,0,0,0,0,0,0,0,0,0,0,0,0,0,0,0,0,0,0,0,0,0,0,0,0,0,0,0,0,0,0,0,0,0,0,0,0,0,0,0,0,0,0,0,0,0,0,0,0],"split_type":[0,0,0,0,0,0,0,0,0,0,0,0,0,0,0,0,0,0,0,0,0,0,0,0,0,0,0,0,0,0,0,0,0,0,0,0,0,0,0,0,0,0,0,0,0,0,0,0,0,0,0,0,0,0,0,0,0,0,0,0,0,0,0,0,0,0,0,0,0,0,0,0,0,0,0,0,0,0,0,0,0,0,0,0,0,0,0,0,0,0,0,0,0,0,0,0,0,0,0,0,0,0,0,0,0,0,0,0,0,0,0,0,0,0,0,0,0,0,0,0,0],"sum_hessian":[6.4989E4,6.3176E4,1.813E3,1.764E3,6.1412E4,2.02E2,1.611E3,1.62E2,1.602E3,5.7907E4,3.505E3,1.68E2,3.4E1,1.89E2,1.422E3,1.09E2,5.3E1,3.08E2,1.294E3,5.6405E4,1.502E3,6.66E2,2.839E3,5.5E1,1.13E2,6E0,2.8E1,7.6E1,1.13E2,1.75E2,1.247E3,2.9E1,8E1,1.1E1,4.2E1,1.65E2,1.43E2,1.095E3,1.99E2,4.276E3,5.2129E4,1.26E2,1.376E3,7.5E1,5.91E2,2.79E2,2.56E3,3.6E1,1.9E1,2.3E1,9E1,4E0,2E0,6E0,2.2E1,4.9E1,2.7E1,8.2E1,3.1E1,6.1E1,1.14E2,1.049E3,1.98E2,4E0,2.5E1,1.4E1,6.6E1,2.4E1,1.8E1,2.4E1,1.41E2,1.5E1,1.28E2,1.14E2,9.81E2,2.3E1,1.76E2,1.472E3,2.804E3,4.6862E4,5.267E3,3E1,9.6E1,2.8E2,1.096E3,2.7E1,4.8E1,9.2E1,4.99E2,8.6E1,1.93E2,1.71E3,8.5E2,1.3E1,2.3E1,3E0,1.6E1,1.1E1,1.2E1,6.2E1,2.8E1,2E0,4E0,1.4E1,8E0,1.1E1,3.8E1,9E0,1.8E1,1.4E1,6.8E1,8E0,2.3E1,4E0,5.7E1,2.8E1,8.6E1,1.39E2,9.1E2,3.8E1,1.6E2],"tree_param":{"num_deleted":"0","num_feature":"3370","num_nodes":"121","size_leaf_vector":"1"}},{"base_weights":[-8.819809E-5,4.0044184E-3,-3.6431281E-4,-7.338061E-4,4.9442514E-3,-1.1351656E-4,-4.0063346E-3,-1.4899847E-2,9.943995E-4,8.0196763E-4,6.5883314E-3,-6.1287903E-3,3.5226094E-5,8.081615E-3,-5.3983703E-3,-2.8846476E-2,9.042705E-3,-8.730115E-3,3.6890246E-3,1.4705847E-2,-7.174571E-4,9.06868E-3,4.909935E-3,-1.7259557E-2,-4.891083E-3,-2.6929516E-3,3.0004416E-4,2.797177E-3,3.6194056E-2,1.1636943E-3,-6.199096E-3,-9.420633E-3,-3.7657946E-2,-1.4716911E-2,1.3615847E-2,4.6005595E-2,-1.35937445E-2,-7.808915E-3,6.1018164E-3,5.19997E-3,5.2955978E-2,1.0672336E-2,-2.0141203E-3,-8.900361E-3,1.1586736E-2,2.1467263E-2,2.9046037E-3,-3.6416244E-2,-1.1778443E-2,-1.2050745E-2,-2.6461296E-3,-1.1302751E-2,-1.7344002E-3,-3.2989124E-3,4.947625E-4,1.2099359E-2,-1.1514529E-3,5.7255406E-2,2.9702822E-2,-1.8794898E-2,5.302384E-3,-1.1009945E-2,-5.4107658E-3,1.7061438E-3,-1.9479514E-3,-2.7093792E-3,-1.089557E-3,-2.4343492E-3,1.2079398E-3,-1.4769554E-4,8.538747E-4,2.960205E-5,3.5935813E-3,-2.594219E-3,-4.275484E-4,-3.8634022E-3,1.9380318E-4,-2.3734188E-4,4.879321E-4,7.0132496E-4,-1.147348E-3,1.412034E-4,3.1089603E-3,8.812489E-4,-1.5932231E-3,-5.237994E-4,1.3548221E-5,-1.639394E-3,-1.5097724E-4,-5.595901E-6,6.634572E-4,2.5254001E-3,7.944506E-4,-2.7719882E-4,2.4639542E-4,-3.686957E-3,-7.03392E-4,-1.4631284E-4,-1.635547E-3,1.2681386E-3,-8.42997E-4,5.06198E-4,-2.1120191E-4,3.1674452E-4,-7.9091545E-4,1.1439454E-4,-1.36294E-4,2.9992333E-4,-2.7396242E-4,-1.6831874E-4,3.25606E-5,1.121586E-3,-1.5692449E-3,-7.4294297E-4,8.6642984E-5,4.618066E-3,9.690404E-4,-3.9805067E-4,1.9541648E-3,1.1184172E-3,-1.3272456E-3,5.713129E-4,-7.303514E-5,-2.8400132E-4,-1.0851945E-3,-1.638105E-4,-3.799536E-4],"categories":[],"categories_nodes":[],"categories_segments":[],"categories_sizes":[],"default_left":[0,0,1,0,0,0,0,0,0,0,1,0,0,0,0,0,0,0,0,1,0,0,0,0,0,0,0,0,0,0,0,0,0,0,0,0,0,0,0,1,0,1,0,0,0,0,0,0,0,0,0,0,0,0,0,0,0,0,0,0,0,0,1,0,0,0,0,0,0,0,0,0,0,0,0,0,0,0,0,0,0,0,0,0,0,0,0,0,0,0,0,0,0,0,0,0,0,0,0,0,0,0,0,0,0,0,0,0,0,0,0,0,0,0,0,0,0,0,0,0,0,0,0,0,0,0,0],"id":8,"left_children":[1,3,5,7,9,11,13,15,17,19,21,23,25,27,29,31,33,35,37,39,41,43,45,47,49,51,53,55,57,59,61,63,65,67,69,71,73,75,77,79,81,83,85,87,89,91,93,95,97,99,101,103,105,107,109,111,113,115,117,119,121,123,125,-1,-1,-1,-1,-1,-1,-1,-1,-1,-1,-1,-1,-1,-1,-1,-1,-1,-1,-1,-1,-1,-1,-1,-1,-1,-1,-1,-1,-1,-1,-1,-1,-1,-1,-1,-1,-1,-1,-1,-1,-1,-1,-1,-1,-1,-1,-1,-1,-1,-1,-1,-1,-1,-1,-1,-1,-1,-1,-1,-1,-1,-1,-1,-1],"loss_changes":[7.335973E-2,1.8274859E-2,5.5548303E-2,1.6662462E-2,2.3313E-2,5.090843E-2,6.5971255E-2,2.4970775E-2,1.5937986E-2,2.0587176E-2,1.0159008E-2,1.88309E-2,4.0116716E-2,6.0064934E-2,1.8471219E-2,7.6902397E-3,3.2427532E-3,3.5765663E-2,1.3252905E-2,3.463033E-2,1.3003205E-2,4.4807203E-2,4.8546735E-2,1.3956066E-2,1.9850546E-2,4.0527064E-2,3.5471052E-2,1.2575891E-2,7.049054E-3,3.1736385E-2,1.1818647E-2,2.1908678E-2,7.211916E-3,7.7792713E-3,1.427053E-3,1.2878798E-2,2.3113452E-2,6.766466E-2,1.5676947E-2,1.9700162E-2,8.609582E-3,2.7178489E-2,1.5278345E-2,1.7039323E-2,1.7065704E-2,2.479294E-2,2.2369243E-2,2.3985859E-2,1.9916503E-2,5.3506628E-2,1.9044243E-2,3.9284952E-2,1.7641261E-2,5.2697986E-2,2.9007968E-2,4.6532102E-2,9.554031E-3,1.6824674E-2,1.8329676E-2,2.16488E-2,1.31870685E-2,2.495578E-2,1.2554266E-2,0E0,0E0,0E0,0E0,0E0,0E0,0E0,0E0,0E0,0E0,0E0,0E0,0E0,0E0,0E0,0E0,0E0,0E0,0E0,0E0,0E0,0E0,0E0,0E0,0E0,0E0,0E0,0E0,0E0,0E0,0E0,0E0,0E0,0E0,0E0,0E0,0E0,0E0,0E0,0E0,0E0,0E0,0E0,0E0,0E0,0E0,0E0,0E0,0E0,0E0,0E0,0E0,0E0,0E0,0E0,0E0,0E0,0E0,0E0,0E0,0E0,0E0,0E0,0E0],"parents":[2147483647,0,0,1,1,2,2,3,3,4,4,5,5,6,6,7,7,8,8,9,9,10,10,11,11,12,12,13,13,14,14,15,15,16,16,17,17,18,18,19,19,20,20,21,21,22,22,23,23,24,24,25,25,26,26,27,27,28,28,29,29,30,30,31,31,32,32,33,33,34,34,35,35,36,36,37,37,38,38,39,39,40,40,41,41,42,42,43,43,44,44,45,45,46,46,47,47,48,48,49,49,50,50,51,51,52,52,53,53,54,54,55,55,56,56,57,57,58,58,59,59,60,60,61,61,62,62],"right_children":[2,4,6,8,10,12,14,16,18,20,22,24,26,28,30,32,34,36,38,40,42,44,46,48,50,52,54,56,58,60,62,64,66,68,70,72,74,76,78,80,82,84,86,88,90,92,94,96,98,100,102,104,106,108,110,112,114,116,118,120,122,124,126,-1,-1,-1,-1,-1,-1,-1,-1,-1,-1,-1,-1,-1,-1,-1,-1,-1,-1,-1,-1,-1,-1,-1,-1,-1,-1,-1,-1,-1,-1,-1,-1,-1,-1,-1,-1,-1,-1,-1,-1,-1,-1,-1,-1,-1,-1,-1,-1,-1,-1,-1,-1,-1,-1,-1,-1,-1,-1,-1,-1,-1,-1,-1,-1],"split_conditions":[1.7380235E-1,2E0,6.778575E-2,2.00001E0,2.00001E0,7.911738E-2,2.00001E0,1.1875794E-1,2.00001E0,2.00001E0,3E0,2.00001E0,6.56731E-2,1.000001E1,2.00001E0,2.00001E0,2.00001E0,2.00001E0,2.00001E0,5E0,2.00001E0,2.00001E0,2.00001E0,2.00001E0,2.00001E0,2.00001E0,2.947415E-1,2.00001E0,2.00001E0,2.00001E0,2.00001E0,2.00001E0,2.00001E0,2.00001E0,2.00001E0,7.078058E-2,2.00001E0,2.00001E0,2.00001E0,4E0,2.00001E0,5E0,2.00001E0,2.00001E0,2.00001E0,2.00001E0,2.00001E0,4E0,5E0,2.00001E0,2.00001E0,2.00001E0,2.00001E0,2.00001E0,6.555397E-2,5E0,2.00001E0,5.5063024E-2,2.00001E0,2.00001E0,4E0,5E0,3E0,1.7061438E-3,-1.9479514E-3,-2.7093792E-3,-1.089557E-3,-2.4343492E-3,1.2079398E-3,-1.4769554E-4,8.538747E-4,2.960205E-5,3.5935813E-3,-2.594219E-3,-4.275484E-4,-3.8634022E-3,1.9380318E-4,-2.3734188E-4,4.879321E-4,7.0132496E-4,-1.147348E-3,1.412034E-4,3.1089603E-3,8.812489E-4,-1.5932231E-3,-5.237994E-4,1.3548221E-5,-1.639394E-3,-1.5097724E-4,-5.595901E-6,6.634572E-4,2.5254001E-3,7.944506E-4,-2.7719882E-4,2.4639542E-4,-3.686957E-3,-7.03392E-4,-1.4631284E-4,-1.635547E-3,1.2681386E-3,-8.42997E-4,5.06198E-4,-2.1120191E-4,3.1674452E-4,-7.9091545E-4,1.1439454E-4,-1.36294E-4,2.9992333E-4,-2.7396242E-4,-1.6831874E-4,3.25606E-5,1.121586E-3,-1.5692449E-3,-7.4294297E-4,8.6642984E-5,4.618066E-3,9.690404E-4,-3.9805067E-4,1.9541648E-3,1.1184172E-3,-1.3272456E-3,5.713129E-4,-7.303514E-5,-2.8400132E-4,-1.0851945E-3,-1.638105E-4,-3.799536E-4],"split_indices":[1373,0,2492,9,40,2655,1,265,12,3,0,5,3203,0,7,11,13,3,26,0,9,10,10,13,89,5,3314,22,15,15,10,22,22,26,14,1373,10,2,15,0,14,0,11,12,2,13,14,0,0,2,3,11,13,14,937,0,14,1679,22,25,0,0,0,0,0,0,0,0,0,0,0,0,0,0,0,0,0,0,0,0,0,0,0,0,0,0,0,0,0,0,0,0,0,0,0,0,0,0,0,0,0,0,0,0,0,0,0,0,0,0,0,0,0,0,0,0,0,0,0,0,0,0,0,0,0,0,0],"split_type":[0,0,0,0,0,0,0,0,0,0,0,0,0,0,0,0,0,0,0,0,0,0,0,0,0,0,0,0,0,0,0,0,0,0,0,0,0,0,0,0,0,0,0,0,0,0,0,0,0,0,0,0,0,0,0,0,0,0,0,0,0,0,0,0,0,0,0,0,0,0,0,0,0,0,0,0,0,0,0,0,0,0,0,0,0,0,0,0,0,0,0,0,0,0,0,0,0,0,0,0,0,0,0,0,0,0,0,0,0,0,0,0,0,0,0,0,0,0,0,0,0,0,0,0,0,0,0],"sum_hessian":[6.4916E4,4.102E3,6.0814E4,6.79E2,3.423E3,5.6897E4,3.917E3,7.3E1,6.06E2,9.73E2,2.45E3,1.372E3,5.5525E4,4.04E2,3.513E3,4.6E1,2.7E1,1.31E2,4.75E2,9.5E1,8.78E2,9.87E2,1.463E3,1.36E2,1.236E3,4.912E3,5.0613E4,3.41E2,6.3E1,3.82E2,3.131E3,1.5E1,3.1E1,4E0,2.3E1,1E1,1.21E2,8.2E1,3.93E2,7.7E1,1.8E1,8.9E1,7.89E2,1.21E2,8.66E2,1.57E2,1.306E3,2.9E1,1.07E2,2.94E2,9.42E2,4.91E2,4.421E3,2.597E3,4.8016E4,1.01E2,2.4E2,1.3E1,5E1,6.5E1,3.17E2,4.39E2,2.692E3,6E0,9E0,1.4E1,1.7E1,2E0,2E0,4E0,1.9E1,4E0,6E0,1.3E1,1.08E2,1.1E1,7.1E1,9.9E1,2.94E2,5.9E1,1.8E1,3E0,1.5E1,7.7E1,1.2E1,1.67E2,6.22E2,2.3E1,9.8E1,1.09E2,7.57E2,2.4E1,1.33E2,2.52E2,1.054E3,1E1,1.9E1,7.6E1,3.1E1,3.3E1,2.61E2,1.03E2,8.39E2,1E2,3.91E2,8.74E2,3.547E3,4.93E2,2.104E3,1.869E3,4.6147E4,8.2E1,1.9E1,4.1E1,1.99E2,6E0,7E0,1E1,4E1,1E1,5.5E1,1.66E2,1.51E2,2.94E2,1.45E2,1.364E3,1.328E3],"tree_param":{"num_deleted":"0","num_feature":"3370","num_nodes":"127","size_leaf_vector":"1"}},{"base_weights":[5.515991E-5,3.5160183E-4,-4.2370013E-3,-2.2840905E-3,6.488968E-4,2.2676557E-3,-5.902343E-3,-4.0944046E-3,5.7547004E-3,5.9531154E-3,4.7841546E-4,-2.0711558E-2,4.765047E-3,-1.04830186E-4,-7.7636563E-3,1.422219E-2,-4.6536247E-3,-4.538386E-3,1.0605982E-2,1.871456E-2,4.3328307E-3,2.5554947E-3,-4.3694352E-5,1.469074E-2,-3.77388E-2,-7.6505835E-3,9.003093E-3,1.7118275E-2,-1.8550038E-3,-3.9772945E-3,-8.150307E-3,3.2449637E-2,8.959558E-3,-1.630243E-2,-3.6111178E-3,-2.6147025E-2,6.2196434E-4,-2.3557253E-5,1.4094127E-2,-7.3678495E-4,2.3710214E-2,-4.6928935E-3,6.550282E-3,3.4929584E-3,-7.0951227E-3,-2.7382735E-4,3.7833538E-3,-4.66844E-3,3.1779926E-2,-7.707043E-2,-2.8758487E-2,-2.8168268E-3,-1.8381307E-2,-1.4674473E-2,1.2254427E-2,7.2742146E-3,5.2963614E-2,-9.767089E-3,7.904669E-4,-3.0388756E-2,3.1058623E-3,-6.3964822E-3,-9.968715E-3,-2.7727603E-4,2.3464442E-3,1.5308212E-3,4.351139E-6,-1.016241E-3,-3.6452827E-4,5.782637E-4,-2.0592501E-4,-6.188796E-4,-2.1055713E-3,-6.5981835E-4,3.5405872E-4,-3.3773796E-4,1.1309147E-3,2.170162E-4,8.9364825E-4,-2.0652732E-3,8.03783E-4,-1.396766E-4,1.4474741E-3,-5.227002E-4,6.8828835E-5,-3.6348656E-4,4.3457374E-4,2.0445084E-4,-2.5865983E-4,2.0225691E-4,-6.494415E-4,-1.5752987E-4,4.031252E-6,5.301772E-4,1.472119E-4,9.468556E-4,-8.002186E-4,2.9762904E-3,5.9772015E-4,-4.663536E-3,-1.4726162E-3,-1.0545552E-3,-1.5802268E-3,-1.8633365E-3,9.460149E-6,-4.14646E-3,-4.915957E-4,1.0684346E-3,-1.5819719E-3,3.287354E-4,8.812437E-4,-3.696212E-4,9.3536515E-4,-7.039785E-4,4.2358874E-3,1.5680386E-3,-6.4005825E-4,-4.6520602E-4,2.8569283E-4,-2.3835835E-4,-2.2325963E-3,5.6578923E-4,-6.4246956E-4,-1.1811027E-4,-4.928088E-4,-7.925162E-4,-3.86824E-4],"categories":[],"categories_nodes":[],"categories_segments":[],"categories_sizes":[],"default_left":[1,0,0,1,0,0,0,0,0,0,0,1,0,0,0,0,0,0,0,0,0,1,1,0,0,1,0,0,0,0,1,0,0,1,0,0,0,0,0,1,0,0,0,1,0,0,0,0,0,0,0,0,0,1,1,0,0,0,0,0,0,0,0,0,0,0,0,0,0,0,0,0,0,0,0,0,0,0,0,0,0,0,0,0,0,0,0,0,0,0,0,0,0,0,0,0,0,0,0,0,0,0,0,0,0,0,0,0,0,0,0,0,0,0,0,0,0,0,0,0,0,0,0,0,0,0,0],"id":9,"left_children":[1,3,5,7,9,11,13,15,17,19,21,23,25,27,29,31,33,35,37,39,41,43,45,47,49,51,53,55,57,59,61,63,65,67,69,71,73,75,77,79,81,83,85,87,89,91,93,95,97,99,101,103,105,107,109,111,113,115,117,119,121,123,125,-1,-1,-1,-1,-1,-1,-1,-1,-1,-1,-1,-1,-1,-1,-1,-1,-1,-1,-1,-1,-1,-1,-1,-1,-1,-1,-1,-1,-1,-1,-1,-1,-1,-1,-1,-1,-1,-1,-1,-1,-1,-1,-1,-1,-1,-1,-1,-1,-1,-1,-1,-1,-1,-1,-1,-1,-1,-1,-1,-1,-1,-1,-1,-1],"loss_changes":[8.254182E-2,4.7549784E-2,4.5412287E-2,8.953745E-2,4.930792E-2,4.9165517E-2,3.600873E-2,5.1496312E-2,5.6524243E-2,3.5028756E-2,5.729665E-2,5.1189903E-2,4.0689982E-2,2.4508217E-2,3.665641E-3,1.4001992E-2,5.911862E-2,4.049372E-2,2.851282E-2,1.8577345E-2,3.0212004E-2,9.604171E-2,3.718722E-2,9.411676E-3,1.7916568E-2,1.0166555E-2,4.4522434E-2,2.6079511E-2,1.5454938E-2,4.4244446E-2,7.24262E-3,1.8414907E-2,2.247904E-2,1.4351517E-2,3.449848E-2,1.4866214E-2,2.6334563E-2,2.9262492E-2,2.126325E-2,2.7946359E-2,2.1187633E-2,1.0434521E-2,3.5898276E-2,4.999253E-2,6.1770536E-2,4.0611986E-2,1.3675198E-2,4.0493496E-3,7.5395545E-3,4.9672276E-3,3.8086623E-4,1.4194421E-2,3.284721E-2,4.3479066E-2,1.5348956E-2,1.0199391E-2,3.5255164E-2,2.3486689E-2,2.7586734E-2,1.8059388E-2,2.464079E-2,1.629287E-2,1.4621399E-2,0E0,0E0,0E0,0E0,0E0,0E0,0E0,0E0,0E0,0E0,0E0,0E0,0E0,0E0,0E0,0E0,0E0,0E0,0E0,0E0,0E0,0E0,0E0,0E0,0E0,0E0,0E0,0E0,0E0,0E0,0E0,0E0,0E0,0E0,0E0,0E0,0E0,0E0,0E0,0E0,0E0,0E0,0E0,0E0,0E0,0E0,0E0,0E0,0E0,0E0,0E0,0E0,0E0,0E0,0E0,0E0,0E0,0E0,0E0,0E0,0E0,0E0,0E0,0E0],"parents":[2147483647,0,0,1,1,2,2,3,3,4,4,5,5,6,6,7,7,8,8,9,9,10,10,11,11,12,12,13,13,14,14,15,15,16,16,17,17,18,18,19,19,20,20,21,21,22,22,23,23,24,24,25,25,26,26,27,27,28,28,29,29,30,30,31,31,32,32,33,33,34,34,35,35,36,36,37,37,38,38,39,39,40,40,41,41,42,42,43,43,44,44,45,45,46,46,47,47,48,48,49,49,50,50,51,51,52,52,53,53,54,54,55,55,56,56,57,57,58,58,59,59,60,60,61,61,62,62],"right_children":[2,4,6,8,10,12,14,16,18,20,22,24,26,28,30,32,34,36,38,40,42,44,46,48,50,52,54,56,58,60,62,64,66,68,70,72,74,76,78,80,82,84,86,88,90,92,94,96,98,100,102,104,106,108,110,112,114,116,118,120,122,124,126,-1,-1,-1,-1,-1,-1,-1,-1,-1,-1,-1,-1,-1,-1,-1,-1,-1,-1,-1,-1,-1,-1,-1,-1,-1,-1,-1,-1,-1,-1,-1,-1,-1,-1,-1,-1,-1,-1,-1,-1,-1,-1,-1,-1,-1,-1,-1,-1,-1,-1,-1,-1,-1,-1,-1,-1,-1,-1,-1,-1,-1,-1,-1,-1],"split_conditions":[1.3215071E-1,2.00001E0,2.00001E0,4.6300024E-2,7.1218334E-2,2.00001E0,2.00001E0,6.385737E-2,3E0,2.00001E0,2.00001E0,2E0,2.00001E0,2.00001E0,2.00001E0,2.00001E0,3.6377747E-2,7.6348215E-2,5.0148267E-2,2.00001E0,2.00001E0,1.456887E-1,5.569534E-2,2E0,2.00001E0,4E0,2.00001E0,5E0,2.00001E0,2.00001E0,3E0,2E0,2.00001E0,4E0,2.2409824E-1,2E0,6.231268E-1,1.000001E1,1.5404885E-1,2E0,2.00001E0,4E0,2.00001E0,6.6515245E-2,3E0,2.00001E0,2.00001E0,2.00001E0,1.7232928E-1,5E0,2.00001E0,2.00001E0,2.00001E0,2E0,3E0,1.7232928E-1,2.00001E0,2.00001E0,3E0,2.00001E0,5E0,3.4420842E-1,2.00001E0,-2.7727603E-4,2.3464442E-3,1.5308212E-3,4.351139E-6,-1.016241E-3,-3.6452827E-4,5.782637E-4,-2.0592501E-4,-6.188796E-4,-2.1055713E-3,-6.5981835E-4,3.5405872E-4,-3.3773796E-4,1.1309147E-3,2.170162E-4,8.9364825E-4,-2.0652732E-3,8.03783E-4,-1.396766E-4,1.4474741E-3,-5.227002E-4,6.8828835E-5,-3.6348656E-4,4.3457374E-4,2.0445084E-4,-2.5865983E-4,2.0225691E-4,-6.494415E-4,-1.5752987E-4,4.031252E-6,5.301772E-4,1.472119E-4,9.468556E-4,-8.002186E-4,2.9762904E-3,5.9772015E-4,-4.663536E-3,-1.4726162E-3,-1.0545552E-3,-1.5802268E-3,-1.8633365E-3,9.460149E-6,-4.14646E-3,-4.915957E-4,1.0684346E-3,-1.5819719E-3,3.287354E-4,8.812437E-4,-3.696212E-4,9.3536515E-4,-7.039785E-4,4.2358874E-3,1.5680386E-3,-6.4005825E-4,-4.6520602E-4,2.8569283E-4,-2.3835835E-4,-2.2325963E-3,5.6578923E-4,-6.4246956E-4,-1.1811027E-4,-4.928088E-4,-7.925162E-4,-3.86824E-4],"split_indices":[1711,5,14,1320,1502,4,11,2292,0,2,13,0,43,5,7,13,1188,2270,1320,14,13,2917,1023,0,22,0,9,0,22,35,0,0,14,0,826,0,3295,0,2917,0,16,0,6,2328,0,6,3,69,269,0,69,5,7,0,0,269,69,2,0,13,0,235,22,0,0,0,0,0,0,0,0,0,0,0,0,0,0,0,0,0,0,0,0,0,0,0,0,0,0,0,0,0,0,0,0,0,0,0,0,0,0,0,0,0,0,0,0,0,0,0,0,0,0,0,0,0,0,0,0,0,0,0,0,0,0,0,0],"split_type":[0,0,0,0,0,0,0,0,0,0,0,0,0,0,0,0,0,0,0,0,0,0,0,0,0,0,0,0,0,0,0,0,0,0,0,0,0,0,0,0,0,0,0,0,0,0,0,0,0,0,0,0,0,0,0,0,0,0,0,0,0,0,0,0,0,0,0,0,0,0,0,0,0,0,0,0,0,0,0,0,0,0,0,0,0,0,0,0,0,0,0,0,0,0,0,0,0,0,0,0,0,0,0,0,0,0,0,0,0,0,0,0,0,0,0,0,0,0,0,0,0,0,0,0,0,0,0],"sum_hessian":[6.487E4,6.068E4,4.19E3,6.15E3,5.453E4,8.54E2,3.336E3,5.02E3,1.13E3,1.697E3,5.2833E4,8.3E1,7.71E2,8.11E2,2.525E3,1.48E2,4.872E3,3.62E2,7.68E2,1.9E2,1.507E3,1.0612E4,4.2221E4,2.7E1,5.6E1,1.96E2,5.75E2,7.4E1,7.37E2,2.35E2,2.29E3,3.2E1,1.16E2,3.99E2,4.473E3,6.9E1,2.93E2,1.9E2,5.78E2,3.9E1,1.51E2,2.97E2,1.21E3,9.673E3,9.39E2,3.9827E4,2.394E3,1.3E1,1.4E1,9E0,4.7E1,1.36E2,6E1,6.9E1,5.06E2,5.9E1,1.5E1,1.84E2,5.53E2,4.9E1,1.86E2,1.168E3,1.122E3,9E0,2.3E1,3.3E1,8.3E1,2.75E2,1.24E2,1.44E2,4.329E3,3.8E1,3.1E1,9.3E1,2E2,1.47E2,4.3E1,1.62E2,4.16E2,1.1E1,2.8E1,2.5E1,1.26E2,1.52E2,1.45E2,1.62E2,1.048E3,9.051E3,6.22E2,3.25E2,6.14E2,4.368E3,3.5459E4,2.61E2,2.133E3,4E0,9E0,5E0,9E0,6E0,3E0,1.5E1,3.2E1,1E1,1.26E2,6E0,5.4E1,2.2E1,4.7E1,2.47E2,2.59E2,2.6E1,3.3E1,5E0,1E1,1.2E1,1.72E2,1.81E2,3.72E2,1.8E1,3.1E1,1.23E2,6.3E1,5.4E2,6.28E2,3.07E2,8.15E2],"tree_param":{"num_deleted":"0","num_feature":"3370","num_nodes":"127","size_leaf_vector":"1"}},{"base_weights":[-7.981919E-5,1.1576542E-4,-4.067366E-3,2.409511E-4,-5.049081E-3,9.837261E-3,-5.556023E-3,4.4621882E-4,-2.4831218E-3,1.2591294E-2,-6.929569E-3,1.9011471E-2,4.5352415E-3,-1.3643711E-2,-4.583358E-3,6.0597196E-4,-2.618957E-3,-5.9304237E-3,1.0213392E-3,1.5174425E-3,2.1775829E-2,-1.0245806E-3,-1.0129207E-2,7.0158993E-3,2.2775285E-2,1.0590422E-2,2.2480192E-3,3.1954902E-3,-1.6955862E-2,-1.130617E-2,-3.4644452E-3,-7.280375E-4,1.0180285E-3,5.631559E-4,-5.8686915E-3,-1.8472668E-2,-4.4304132E-3,4.452884E-3,-5.6032115E-3,-1.2278292E-2,6.6592298E-3,5.555308E-2,1.2707895E-2,1.9346032E-2,-3.0400078E-3,-2.7179718E-4,-1.2535853E-2,-8.716285E-3,2.7407488E-2,3.629744E-2,1.9152107E-2,-2.4721492E-2,1.9806048E-2,1.1458811E-2,3.8631272E-4,2.9679775E-2,-3.5054684E-3,-4.0340624E-3,-2.5112776E-2,1.1909146E-2,-1.59903E-2,-1.2776648E-2,-1.4399225E-3,1.4209042E-4,-5.6360983E-5,-1.08876455E-4,6.345726E-5,-9.057512E-5,2.7018864E-4,-9.449049E-4,-2.181081E-4,-3.2976943E-5,-1.7607209E-3,-9.5548027E-4,-1.36637E-4,7.7967625E-4,7.823242E-5,-8.845824E-4,-2.0476108E-4,-6.7605295E-5,-2.0207977E-3,5.707591E-4,-2.8531553E-4,1.7870426E-3,3.7960054E-3,1.608542E-3,3.4438542E-4,2.6153906E-3,1.3831731E-4,-7.192707E-4,-6.726561E-5,6.046498E-4,-6.6146045E-4,-8.249283E-5,-6.932527E-4,-1.3454914E-3,-2.0464262E-5,-3.661561E-3,2.1606924E-3,2.46627E-4,2.7311563E-3,1.5263598E-3,2.6622586E-4,-3.2988072E-3,-6.999207E-4,-6.956794E-4,1.5566087E-3,-7.781116E-5,1.0795043E-3,1.9008912E-4,-4.1079088E-4,2.4774552E-3,4.0876865E-4,1.231877E-3,-5.655572E-4,2.4002965E-4,-1.698442E-3,-1.6029421E-3,-8.132591E-4,-1.1749676E-3,1.1213375E-3,-1.3117876E-3,-4.5046094E-4,-1.7746536E-4,-8.9568953E-4,-4.0655394E-4,1.4567393E-5],"categories":[],"categories_nodes":[],"categories_segments":[],"categories_sizes":[],"default_left":[1,1,0,1,0,0,0,1,0,1,0,0,0,0,0,0,0,0,1,0,0,0,0,0,0,0,0,0,0,0,0,0,0,0,0,0,0,0,0,1,0,0,0,0,0,1,0,0,0,0,0,0,0,1,1,0,0,1,0,0,0,0,0,0,0,0,0,0,0,0,0,0,0,0,0,0,0,0,0,0,0,0,0,0,0,0,0,0,0,0,0,0,0,0,0,0,0,0,0,0,0,0,0,0,0,0,0,0,0,0,0,0,0,0,0,0,0,0,0,0,0,0,0,0,0,0,0],"id":10,"left_children":[1,3,5,7,9,11,13,15,17,19,21,23,25,27,29,31,33,35,37,39,41,43,45,47,49,51,53,55,57,59,61,63,65,67,69,71,73,75,77,79,81,83,85,87,89,91,93,95,97,99,101,103,105,107,109,111,113,115,117,119,121,123,125,-1,-1,-1,-1,-1,-1,-1,-1,-1,-1,-1,-1,-1,-1,-1,-1,-1,-1,-1,-1,-1,-1,-1,-1,-1,-1,-1,-1,-1,-1,-1,-1,-1,-1,-1,-1,-1,-1,-1,-1,-1,-1,-1,-1,-1,-1,-1,-1,-1,-1,-1,-1,-1,-1,-1,-1,-1,-1,-1,-1,-1,-1,-1,-1],"loss_changes":[5.0475005E-2,3.989039E-2,6.26905E-2,3.3682365E-2,4.8519116E-2,1.4165839E-2,2.144479E-2,2.7430533E-2,5.099968E-2,1.4307808E-2,2.4929471E-2,4.671164E-3,2.5660577E-3,1.639596E-2,1.8330142E-2,2.9266642E-2,2.8699644E-2,3.9953284E-2,4.762669E-2,4.692521E-3,2.2878356E-2,1.9149614E-2,2.0303734E-2,8.900606E-3,3.2732747E-3,1.7086124E-2,2.3448206E-3,8.800076E-3,2.5722176E-2,3.8033184E-2,3.9478146E-2,1.7908566E-2,3.264433E-2,1.6137008E-2,2.6868433E-2,6.767338E-2,4.7346525E-2,4.437959E-2,1.296146E-2,5.479225E-3,2.8880143E-3,3.7428066E-3,6.801651E-3,2.2808127E-2,8.132898E-3,2.7236437E-2,9.932257E-3,2.4071264E-3,2.225338E-2,8.927101E-3,1.0218604E-2,3.9425846E-3,1.6091589E-2,3.0663535E-3,3.409971E-3,3.867697E-3,9.065686E-3,2.555156E-2,8.696951E-3,2.2499356E-2,2.0505697E-2,1.7664831E-2,1.9950358E-2,0E0,0E0,0E0,0E0,0E0,0E0,0E0,0E0,0E0,0E0,0E0,0E0,0E0,0E0,0E0,0E0,0E0,0E0,0E0,0E0,0E0,0E0,0E0,0E0,0E0,0E0,0E0,0E0,0E0,0E0,0E0,0E0,0E0,0E0,0E0,0E0,0E0,0E0,0E0,0E0,0E0,0E0,0E0,0E0,0E0,0E0,0E0,0E0,0E0,0E0,0E0,0E0,0E0,0E0,0E0,0E0,0E0,0E0,0E0,0E0,0E0,0E0,0E0,0E0],"parents":[2147483647,0,0,1,1,2,2,3,3,4,4,5,5,6,6,7,7,8,8,9,9,10,10,11,11,12,12,13,13,14,14,15,15,16,16,17,17,18,18,19,19,20,20,21,21,22,22,23,23,24,24,25,25,26,26,27,27,28,28,29,29,30,30,31,31,32,32,33,33,34,34,35,35,36,36,37,37,38,38,39,39,40,40,41,41,42,42,43,43,44,44,45,45,46,46,47,47,48,48,49,49,50,50,51,51,52,52,53,53,54,54,55,55,56,56,57,57,58,58,59,59,60,60,61,61,62,62],"right_children":[2,4,6,8,10,12,14,16,18,20,22,24,26,28,30,32,34,36,38,40,42,44,46,48,50,52,54,56,58,60,62,64,66,68,70,72,74,76,78,80,82,84,86,88,90,92,94,96,98,100,102,104,106,108,110,112,114,116,118,120,122,124,126,-1,-1,-1,-1,-1,-1,-1,-1,-1,-1,-1,-1,-1,-1,-1,-1,-1,-1,-1,-1,-1,-1,-1,-1,-1,-1,-1,-1,-1,-1,-1,-1,-1,-1,-1,-1,-1,-1,-1,-1,-1,-1,-1,-1,-1,-1,-1,-1,-1,-1,-1,-1,-1,-1,-1,-1,-1,-1,-1,-1,-1,-1,-1,-1],"split_conditions":[7.9496935E-2,7.660774E-2,2.00001E0,5.9518695E-2,2.00001E0,3E0,2.00001E0,7.1177855E-2,4E0,3E0,3E0,2.00001E0,2.00001E0,2E0,2.00001E0,7.648722E-2,4E0,2.00001E0,5E0,2.00001E0,2.00001E0,2.00001E0,2.00001E0,2E0,2.00001E0,2.00001E0,2.00001E0,2.00001E0,2.00001E0,2E0,2E0,2.00001E0,1.5497817E-1,3E0,2.00001E0,1.2411753E-1,2.00001E0,2.00001E0,2.00001E0,2E0,3E0,4E0,2.00001E0,2.00001E0,2.00001E0,4E0,2.00001E0,2.00001E0,2.00001E0,2.00001E0,2.00001E0,4E0,2.00001E0,4E0,5E0,2.00001E0,2.00001E0,5E0,5E0,2.00001E0,2.00001E0,2.00001E0,2.00001E0,1.4209042E-4,-5.6360983E-5,-1.08876455E-4,6.345726E-5,-9.057512E-5,2.7018864E-4,-9.449049E-4,-2.181081E-4,-3.2976943E-5,-1.7607209E-3,-9.5548027E-4,-1.36637E-4,7.7967625E-4,7.823242E-5,-8.845824E-4,-2.0476108E-4,-6.7605295E-5,-2.0207977E-3,5.707591E-4,-2.8531553E-4,1.7870426E-3,3.7960054E-3,1.608542E-3,3.4438542E-4,2.6153906E-3,1.3831731E-4,-7.192707E-4,-6.726561E-5,6.046498E-4,-6.6146045E-4,-8.249283E-5,-6.932527E-4,-1.3454914E-3,-2.0464262E-5,-3.661561E-3,2.1606924E-3,2.46627E-4,2.7311563E-3,1.5263598E-3,2.6622586E-4,-3.2988072E-3,-6.999207E-4,-6.956794E-4,1.5566087E-3,-7.781116E-5,1.0795043E-3,1.9008912E-4,-4.1079088E-4,2.4774552E-3,4.0876865E-4,1.231877E-3,-5.655572E-4,2.4002965E-4,-1.698442E-3,-1.6029421E-3,-8.132591E-4,-1.1749676E-3,1.1213375E-3,-1.3117876E-3,-4.5046094E-4,-1.7746536E-4,-8.9568953E-4,-4.0655394E-4,1.4567393E-5],"split_indices":[406,297,10,1016,6,0,7,2492,0,0,0,33,33,0,2,1037,0,4,0,14,15,4,14,0,14,14,14,15,39,0,0,10,2150,0,6,281,9,14,2,0,0,0,14,41,5,0,2,15,14,39,39,0,15,0,0,79,14,0,0,15,39,39,14,0,0,0,0,0,0,0,0,0,0,0,0,0,0,0,0,0,0,0,0,0,0,0,0,0,0,0,0,0,0,0,0,0,0,0,0,0,0,0,0,0,0,0,0,0,0,0,0,0,0,0,0,0,0,0,0,0,0,0,0,0,0,0,0],"split_type":[0,0,0,0,0,0,0,0,0,0,0,0,0,0,0,0,0,0,0,0,0,0,0,0,0,0,0,0,0,0,0,0,0,0,0,0,0,0,0,0,0,0,0,0,0,0,0,0,0,0,0,0,0,0,0,0,0,0,0,0,0,0,0,0,0,0,0,0,0,0,0,0,0,0,0,0,0,0,0,0,0,0,0,0,0,0,0,0,0,0,0,0,0,0,0,0,0,0,0,0,0,0,0,0,0,0,0,0,0,0,0,0,0,0,0,0,0,0,0,0,0,0,0,0,0,0,0],"sum_hessian":[6.4718E4,6.1693E4,3.025E3,6.0234E4,1.459E3,2.92E2,2.733E3,5.6014E4,4.22E3,1.4E2,1.319E3,1.06E2,1.86E2,2.92E2,2.441E3,5.324E4,2.774E3,2.127E3,2.093E3,6.4E1,7.6E1,4.64E2,8.55E2,2.6E1,8E1,5E1,1.36E2,4.8E1,2.44E2,3.47E2,2.094E3,1.2564E4,4.0676E4,1.402E3,1.372E3,2.26E2,1.901E3,1.379E3,7.14E2,1.7E1,4.7E1,1.5E1,6.1E1,4.1E1,4.23E2,1.68E2,6.87E2,1.5E1,1.1E1,1.5E1,6.5E1,1E1,4E1,2.2E1,1.14E2,9E0,3.9E1,9.5E1,1.49E2,5.8E1,2.89E2,3.73E2,1.721E3,1.263E3,1.1301E4,2.963E3,3.7713E4,9.41E2,4.61E2,1.41E2,1.231E3,1.1E2,1.16E2,1.96E2,1.705E3,2.83E2,1.096E3,7.8E1,6.36E2,1.3E1,4E0,3.4E1,1.3E1,9E0,6E0,1.3E1,4.8E1,1.3E1,2.8E1,5.4E1,3.69E2,8.6E1,8.2E1,7.5E1,6.12E2,4E0,1.1E1,1E0,1E1,6E0,9E0,3.5E1,3E1,1E0,9E0,1E1,3E1,1E1,1.2E1,8.2E1,3.2E1,4E0,5E0,8E0,3.1E1,7.4E1,2.1E1,8.2E1,6.7E1,1.3E1,4.5E1,1.16E2,1.73E2,1.34E2,2.39E2,3.53E2,1.368E3],"tree_param":{"num_deleted":"0","num_feature":"3370","num_nodes":"127","size_leaf_vector":"1"}},{"base_weights":[1.96187E-4,2.9275396E-3,-9.964578E-6,-4.00889E-3,3.479466E-3,-2.2559104E-4,2.6540954E-3,1.0820355E-3,-2.8516654E-2,7.7585303E-3,2.3931377E-3,-2.759525E-3,-2.4345495E-6,-8.502573E-3,3.8564026E-3,-1.7192287E-2,5.0328323E-3,5.5159885E-2,-3.745142E-2,2.3051022E-2,6.020602E-3,-4.02197E-3,3.186755E-3,-1.4781312E-3,-9.756642E-3,-3.5363447E-4,1.8003809E-3,-2.2716153E-2,-3.7103982E-3,-5.6337365E-3,4.981605E-3,-4.4121455E-2,7.359597E-4,-1.4063497E-2,7.952998E-3,6.07427E-4,7.3628426E-2,1.42244855E-2,-4.9799874E-2,-5.733558E-3,2.8185252E-2,-7.4698925E-3,7.661331E-3,2.165481E-2,-9.227181E-3,-2.8307855E-4,4.9365824E-3,-1.265643E-2,-1.9627849E-4,1.954479E-2,-1.2782016E-2,-3.5917615E-3,-9.765938E-5,1.6518263E-2,1.3722201E-3,6.905056E-4,-2.786806E-2,-2.1351589E-2,3.1696903E-3,-1.9797612E-2,-2.277954E-3,1.2160885E-2,3.9242E-3,-5.04241E-3,-1.4089304E-3,-3.3766509E-3,2.6313466E-4,-1.8225741E-3,1.2210886E-3,1.4530559E-3,2.8589932E-4,1.8813611E-4,4.7831377E-3,3.3327264E-3,-2.4163458E-4,3.3667087E-4,-2.7104104E-3,2.901586E-3,-1.059854E-3,8.190586E-4,1.6126888E-3,-9.5907005E-4,5.158537E-4,7.4989785E-4,1.8695129E-4,2.129689E-3,5.0855934E-4,-1.0349792E-3,-1.224423E-4,-7.2614464E-4,7.7449076E-5,7.3970914E-6,3.2636867E-4,1.64775E-4,-8.30218E-4,-3.320796E-4,3.178221E-5,-1.6404408E-3,1.7135463E-3,4.1451212E-4,-7.871228E-4,-4.882862E-4,-1.0018972E-4,1.0287792E-5,-1.4315294E-4,-1.1404151E-3,1.0123969E-3,5.31687E-4,3.280183E-5,1.1012248E-3,-1.8365144E-3,-1.638297E-3,-1.4306903E-4,-6.4914965E-4,-3.0407012E-3,6.7252235E-4,-3.483666E-4,4.6541073E-4,-1.6618628E-3,8.395845E-4,-3.7949276E-4,2.5603874E-4,1.3850424E-3,6.7092944E-5,2.593803E-4],"categories":[],"categories_nodes":[],"categories_segments":[],"categories_sizes":[],"default_left":[0,0,1,1,0,0,0,0,0,0,0,0,0,0,0,0,0,0,0,0,0,0,1,0,0,0,0,0,0,0,0,0,0,1,0,0,0,0,0,0,0,0,0,0,0,0,0,0,0,0,0,0,1,0,0,0,1,1,0,0,0,0,1,0,0,0,0,0,0,0,0,0,0,0,0,0,0,0,0,0,0,0,0,0,0,0,0,0,0,0,0,0,0,0,0,0,0,0,0,0,0,0,0,0,0,0,0,0,0,0,0,0,0,0,0,0,0,0,0,0,0,0,0,0,0],"id":11,"left_children":[1,3,5,7,9,11,13,15,17,19,21,23,25,27,29,31,33,35,37,39,41,43,45,47,49,51,53,55,57,59,61,63,65,67,69,-1,71,73,75,77,79,81,83,85,87,89,91,93,95,97,99,101,103,105,107,109,111,113,115,117,119,121,123,-1,-1,-1,-1,-1,-1,-1,-1,-1,-1,-1,-1,-1,-1,-1,-1,-1,-1,-1,-1,-1,-1,-1,-1,-1,-1,-1,-1,-1,-1,-1,-1,-1,-1,-1,-1,-1,-1,-1,-1,-1,-1,-1,-1,-1,-1,-1,-1,-1,-1,-1,-1,-1,-1,-1,-1,-1,-1,-1,-1,-1,-1],"loss_changes":[3.6634658E-2,1.7494425E-2,3.475261E-2,4.2077407E-2,1.9644462E-2,3.1647872E-2,6.079705E-2,2.0302005E-2,4.5428377E-2,2.261135E-2,1.7195418E-2,4.0601842E-2,3.256917E-2,2.9953972E-2,4.3702416E-2,2.4172112E-2,1.2993436E-2,3.8716625E-3,3.4528606E-2,1.3019044E-2,1.71006E-2,4.9918745E-2,1.8240515E-2,5.4877326E-2,6.2391922E-2,3.5685416E-2,5.282902E-2,1.3404619E-2,4.0242124E-2,2.058331E-2,2.7714044E-2,1.5245955E-2,9.935504E-3,2.760005E-2,9.316386E-3,0E0,5.797822E-3,1.1312975E-2,1.1081368E-2,1.5034603E-2,3.0255094E-3,1.769612E-2,1.9713368E-2,1.471545E-2,2.4056086E-2,2.6319398E-2,1.5211631E-2,2.4867699E-2,1.8433422E-2,5.2008178E-2,3.9806224E-2,3.09024E-2,3.347925E-2,3.522387E-2,5.4058176E-2,1.7573997E-2,1.1051901E-2,2.9923256E-2,2.5001395E-2,3.277665E-2,3.5783663E-2,5.116818E-2,1.0397296E-2,0E0,0E0,0E0,0E0,0E0,0E0,0E0,0E0,0E0,0E0,0E0,0E0,0E0,0E0,0E0,0E0,0E0,0E0,0E0,0E0,0E0,0E0,0E0,0E0,0E0,0E0,0E0,0E0,0E0,0E0,0E0,0E0,0E0,0E0,0E0,0E0,0E0,0E0,0E0,0E0,0E0,0E0,0E0,0E0,0E0,0E0,0E0,0E0,0E0,0E0,0E0,0E0,0E0,0E0,0E0,0E0,0E0,0E0,0E0,0E0,0E0,0E0],"parents":[2147483647,0,0,1,1,2,2,3,3,4,4,5,5,6,6,7,7,8,8,9,9,10,10,11,11,12,12,13,13,14,14,15,15,16,16,17,17,18,18,19,19,20,20,21,21,22,22,23,23,24,24,25,25,26,26,27,27,28,28,29,29,30,30,31,31,32,32,33,33,34,34,36,36,37,37,38,38,39,39,40,40,41,41,42,42,43,43,44,44,45,45,46,46,47,47,48,48,49,49,50,50,51,51,52,52,53,53,54,54,55,55,56,56,57,57,58,58,59,59,60,60,61,61,62,62],"right_children":[2,4,6,8,10,12,14,16,18,20,22,24,26,28,30,32,34,36,38,40,42,44,46,48,50,52,54,56,58,60,62,64,66,68,70,-1,72,74,76,78,80,82,84,86,88,90,92,94,96,98,100,102,104,106,108,110,112,114,116,118,120,122,124,-1,-1,-1,-1,-1,-1,-1,-1,-1,-1,-1,-1,-1,-1,-1,-1,-1,-1,-1,-1,-1,-1,-1,-1,-1,-1,-1,-1,-1,-1,-1,-1,-1,-1,-1,-1,-1,-1,-1,-1,-1,-1,-1,-1,-1,-1,-1,-1,-1,-1,-1,-1,-1,-1,-1,-1,-1,-1,-1,-1,-1,-1],"split_conditions":[6.516864E-2,2.00001E0,6.4186156E-2,5E0,2.00001E0,3.7621337E-1,2.00001E0,2.00001E0,2.00001E0,2.00001E0,2.00001E0,1.000001E1,1.000001E1,2.00001E0,2.00001E0,3E0,2.00001E0,2.00001E0,2.00001E0,2.00001E0,2.00001E0,2E0,2E0,2.00001E0,2.00001E0,6.555397E-2,2.2132002E-1,2.00001E0,2.00001E0,2E0,2.00001E0,2.00001E0,2.00001E0,3E0,2.00001E0,6.07427E-4,2.00001E0,2.00001E0,2.00001E0,2E0,2.00001E0,5E0,3E0,2.00001E0,3.785817E-2,2.00001E0,2.00001E0,2.00001E0,2.00001E0,2.00001E0,2.00001E0,2E0,6.5091826E-2,2.00001E0,6.374628E-2,5E0,5E0,5E0,4E0,1.9070402E-1,3E0,5E0,2E0,-5.04241E-3,-1.4089304E-3,-3.3766509E-3,2.6313466E-4,-1.8225741E-3,1.2210886E-3,1.4530559E-3,2.8589932E-4,1.8813611E-4,4.7831377E-3,3.3327264E-3,-2.4163458E-4,3.3667087E-4,-2.7104104E-3,2.901586E-3,-1.059854E-3,8.190586E-4,1.6126888E-3,-9.5907005E-4,5.158537E-4,7.4989785E-4,1.8695129E-4,2.129689E-3,5.0855934E-4,-1.0349792E-3,-1.224423E-4,-7.2614464E-4,7.7449076E-5,7.3970914E-6,3.2636867E-4,1.64775E-4,-8.30218E-4,-3.320796E-4,3.178221E-5,-1.6404408E-3,1.7135463E-3,4.1451212E-4,-7.871228E-4,-4.882862E-4,-1.0018972E-4,1.0287792E-5,-1.4315294E-4,-1.1404151E-3,1.0123969E-3,5.31687E-4,3.280183E-5,1.1012248E-3,-1.8365144E-3,-1.638297E-3,-1.4306903E-4,-6.4914965E-4,-3.0407012E-3,6.7252235E-4,-3.483666E-4,4.6541073E-4,-1.6618628E-3,8.395845E-4,-3.7949276E-4,2.5603874E-4,1.3850424E-3,6.7092944E-5,2.593803E-4],"split_indices":[2988,28,983,0,15,2474,8,15,10,4,2,0,0,22,9,0,3,11,12,16,1,0,0,5,10,937,2749,13,11,0,3,8,9,0,7,0,12,9,2,0,39,0,0,26,999,7,11,11,9,15,9,0,2492,3,1355,0,0,0,0,172,0,0,0,0,0,0,0,0,0,0,0,0,0,0,0,0,0,0,0,0,0,0,0,0,0,0,0,0,0,0,0,0,0,0,0,0,0,0,0,0,0,0,0,0,0,0,0,0,0,0,0,0,0,0,0,0,0,0,0,0,0,0,0,0,0],"split_type":[0,0,0,0,0,0,0,0,0,0,0,0,0,0,0,0,0,0,0,0,0,0,0,0,0,0,0,0,0,0,0,0,0,0,0,0,0,0,0,0,0,0,0,0,0,0,0,0,0,0,0,0,0,0,0,0,0,0,0,0,0,0,0,0,0,0,0,0,0,0,0,0,0,0,0,0,0,0,0,0,0,0,0,0,0,0,0,0,0,0,0,0,0,0,0,0,0,0,0,0,0,0,0,0,0,0,0,0,0,0,0,0,0,0,0,0,0,0,0,0,0,0,0,0,0],"sum_hessian":[6.5061E4,4.565E3,6.0496E4,3.36E2,4.229E3,5.5967E4,4.529E3,2.79E2,5.7E1,8.55E2,3.374E3,4.529E3,5.1438E4,4.4E2,4.089E3,4.9E1,2.3E2,5E0,5.2E1,8.6E1,7.69E2,3.71E2,3.003E3,3.829E3,7E2,4.3052E4,8.386E3,1.1E2,3.3E2,4.33E2,3.656E3,1.9E1,3E1,3E1,2E2,2E0,3E0,1E1,4.2E1,1.3E1,7.3E1,8.3E1,6.86E2,6.2E1,3.09E2,1.007E3,1.996E3,3.93E2,3.436E3,6.5E1,6.35E2,3.153E3,3.9899E4,2.36E2,8.15E3,2E1,9E1,9.2E1,2.38E2,8.2E1,3.51E2,4.68E2,3.188E3,3E0,1.6E1,1E0,2.9E1,1.9E1,1.1E1,1.8E1,1.82E2,1E0,2E0,2E0,8E0,3E0,3.9E1,2E0,1.1E1,2E1,5.3E1,5E1,3.3E1,2.38E2,4.48E2,2.1E1,4.1E1,1.14E2,1.95E2,1.14E2,8.93E2,4.98E2,1.498E3,7.8E1,3.15E2,3.92E2,3.044E3,1.4E1,5.1E1,7.8E1,5.57E2,6.44E2,2.509E3,3.5955E4,3.944E3,2E1,2.16E2,5.84E2,7.566E3,1.3E1,7E0,7.5E1,1.5E1,7.7E1,1.5E1,1.18E2,1.2E2,2.6E1,5.6E1,7.6E1,2.75E2,3.23E2,1.45E2,1.048E3,2.14E3],"tree_param":{"num_deleted":"0","num_feature":"3370","num_nodes":"125","size_leaf_vector":"1"}},{"base_weights":[-2.7616892E-5,3.5687252E-3,-1.5534581E-4,-4.2087263E-3,4.489283E-3,4.152603E-3,-2.6296973E-4,8.854681E-3,-9.883615E-3,1.1718286E-2,2.8034658E-3,9.6649124E-4,1.0485524E-2,1.7523441E-3,-4.4969292E-4,-2.029163E-2,1.8945888E-2,-2.5235867E-2,-4.9314424E-3,1.59647E-2,-1.1839028E-2,-4.9946335E-4,6.19405E-3,1.3563098E-2,-6.387981E-4,-1.1655829E-2,1.2596606E-2,4.793572E-3,-1.339247E-3,-6.701749E-4,1.472297E-3,4.6377658E-4,-2.3914815E-3,7.948962E-3,3.45801E-2,-3.8752556E-3,-5.3907562E-2,-1.6857972E-2,5.489097E-3,-2.5349837E-3,2.0617697E-2,-4.5127394E-3,6.936204E-4,5.343076E-3,-3.7468344E-3,-5.1468015E-3,7.7361125E-3,3.4911837E-2,6.6161915E-3,1.2993059E-2,-2.333508E-3,1.6848652E-2,-2.0281356E-2,2.506185E-2,1.0906085E-2,-5.1695504E-3,5.8545005E-3,-5.767365E-3,-2.353306E-4,-5.3917863E-3,-5.984293E-4,-5.0595873E-3,2.216311E-3,1.9601276E-3,-7.1630004E-4,4.9687386E-4,1.9752078E-3,-1.0418543E-3,1.0977507E-3,-3.5576166E-3,-1.7360498E-3,-2.9988734E-3,-1.6840853E-4,-1.5064751E-3,7.227924E-4,-1.1027685E-3,5.1083206E-4,1.2378193E-3,4.3175826E-4,-1.7023245E-3,9.5325214E-4,-3.7365916E-4,4.853904E-4,-1.1920526E-3,-4.5886976E-5,1.6596357E-4,-9.674562E-4,7.49777E-4,2.1957846E-4,1.0203997E-3,3.4310222E-3,1.0445556E-3,-5.5179955E-4,2.9926042E-3,-8.90546E-5,4.2145388E-4,-1.9811322E-4,2.7794172E-3,-6.614753E-4,-4.3683054E-4,-1.8487215E-3,-1.108408E-3,1.6205698E-3,2.501247E-4,6.31501E-4,-1.1378492E-3,-1.8555196E-5,3.350294E-5,3.5371687E-4,3.405718E-4,-6.038341E-4,-4.9766706E-4,4.5451146E-5,-1.4308526E-3,-1.4623559E-4,-1.1577604E-4,-1.9786783E-5,-7.163288E-4,-3.73483E-5,-1.8770217E-4,1.4836616E-4],"categories":[],"categories_nodes":[],"categories_segments":[],"categories_sizes":[],"default_left":[0,0,0,0,0,0,0,0,0,1,0,0,0,0,1,0,1,0,0,0,0,0,0,0,0,0,0,0,0,0,0,0,0,0,0,1,0,0,0,0,1,0,0,0,0,1,0,0,0,0,0,0,0,0,0,0,0,0,0,0,0,1,0,0,0,0,0,0,0,0,0,0,0,0,0,0,0,0,0,0,0,0,0,0,0,0,0,0,0,0,0,0,0,0,0,0,0,0,0,0,0,0,0,0,0,0,0,0,0,0,0,0,0,0,0,0,0,0,0,0,0],"id":12,"left_children":[1,3,5,7,9,11,13,15,17,19,21,23,25,27,29,31,33,35,37,39,41,43,45,47,49,51,53,55,57,59,61,-1,-1,63,65,67,69,71,73,75,77,-1,79,81,83,85,87,89,91,93,95,97,99,101,103,105,107,109,111,113,115,117,119,-1,-1,-1,-1,-1,-1,-1,-1,-1,-1,-1,-1,-1,-1,-1,-1,-1,-1,-1,-1,-1,-1,-1,-1,-1,-1,-1,-1,-1,-1,-1,-1,-1,-1,-1,-1,-1,-1,-1,-1,-1,-1,-1,-1,-1,-1,-1,-1,-1,-1,-1,-1,-1,-1,-1,-1,-1,-1],"loss_changes":[2.9799495E-2,1.5948985E-2,2.9046644E-2,1.7582994E-2,2.4218835E-2,3.0800745E-2,2.3000976E-2,2.156119E-2,1.2420008E-2,3.7801832E-2,1.8089253E-2,2.0573623E-2,2.4032097E-2,4.873819E-2,2.370593E-2,1.5913833E-2,9.0092495E-3,2.428889E-2,1.5751924E-2,2.751147E-2,5.706251E-2,1.5558819E-2,1.3977991E-2,1.6824402E-2,2.0891465E-2,1.1405692E-2,9.567648E-3,2.76501E-2,1.25663895E-2,1.6996507E-2,2.798915E-2,0E0,0E0,2.3535311E-2,2.276944E-3,1.0972564E-2,3.1542778E-3,3.411671E-2,2.2153595E-2,1.6404914E-2,1.243218E-2,0E0,3.3198588E-2,1.6462833E-2,2.9937249E-2,1.1607063E-2,1.6978335E-2,1.2288913E-2,2.2405103E-2,6.933683E-2,1.4127219E-2,1.355281E-2,6.4220726E-3,1.9810054E-2,4.1400865E-3,2.1258429E-2,1.493296E-2,4.0795803E-2,2.2906853E-2,4.294745E-2,1.7203918E-2,2.352869E-2,2.3187952E-2,0E0,0E0,0E0,0E0,0E0,0E0,0E0,0E0,0E0,0E0,0E0,0E0,0E0,0E0,0E0,0E0,0E0,0E0,0E0,0E0,0E0,0E0,0E0,0E0,0E0,0E0,0E0,0E0,0E0,0E0,0E0,0E0,0E0,0E0,0E0,0E0,0E0,0E0,0E0,0E0,0E0,0E0,0E0,0E0,0E0,0E0,0E0,0E0,0E0,0E0,0E0,0E0,0E0,0E0,0E0,0E0,0E0,0E0],"parents":[2147483647,0,0,1,1,2,2,3,3,4,4,5,5,6,6,7,7,8,8,9,9,10,10,11,11,12,12,13,13,14,14,15,15,16,16,17,17,18,18,19,19,20,20,21,21,22,22,23,23,24,24,25,25,26,26,27,27,28,28,29,29,30,30,33,33,34,34,35,35,36,36,37,37,38,38,39,39,40,40,42,42,43,43,44,44,45,45,46,46,47,47,48,48,49,49,50,50,51,51,52,52,53,53,54,54,55,55,56,56,57,57,58,58,59,59,60,60,61,61,62,62],"right_children":[2,4,6,8,10,12,14,16,18,20,22,24,26,28,30,32,34,36,38,40,42,44,46,48,50,52,54,56,58,60,62,-1,-1,64,66,68,70,72,74,76,78,-1,80,82,84,86,88,90,92,94,96,98,100,102,104,106,108,110,112,114,116,118,120,-1,-1,-1,-1,-1,-1,-1,-1,-1,-1,-1,-1,-1,-1,-1,-1,-1,-1,-1,-1,-1,-1,-1,-1,-1,-1,-1,-1,-1,-1,-1,-1,-1,-1,-1,-1,-1,-1,-1,-1,-1,-1,-1,-1,-1,-1,-1,-1,-1,-1,-1,-1,-1,-1,-1,-1,-1,-1],"split_conditions":[8.5892454E-2,2.00001E0,1.70735E-1,2.00001E0,2.00001E0,5E0,2.1136846E-1,3E0,2.00001E0,5E0,4E0,2.00001E0,2.00001E0,4E0,5.264501E-2,2E0,4E0,2.00001E0,2.00001E0,2E0,2.00001E0,2E0,2.00001E0,2.00001E0,2.00001E0,2.00001E0,2.00001E0,2.00001E0,2.00001E0,9.146727E-2,2.00001E0,4.6377658E-4,-2.3914815E-3,2.00001E0,2.00001E0,4E0,4E0,2.00001E0,2E0,2.00001E0,4E0,-4.5127394E-3,2.00001E0,2.00001E0,2.00001E0,5E0,2.00001E0,4E0,2.00001E0,2.00001E0,2.00001E0,1.000001E1,2.00001E0,2.00001E0,2.00001E0,2.00001E0,2.00001E0,5E0,2.00001E0,2.00001E0,4.4176932E-2,2E0,2.00001E0,1.9601276E-3,-7.1630004E-4,4.9687386E-4,1.9752078E-3,-1.0418543E-3,1.0977507E-3,-3.5576166E-3,-1.7360498E-3,-2.9988734E-3,-1.6840853E-4,-1.5064751E-3,7.227924E-4,-1.1027685E-3,5.1083206E-4,1.2378193E-3,4.3175826E-4,-1.7023245E-3,9.5325214E-4,-3.7365916E-4,4.853904E-4,-1.1920526E-3,-4.5886976E-5,1.6596357E-4,-9.674562E-4,7.49777E-4,2.1957846E-4,1.0203997E-3,3.4310222E-3,1.0445556E-3,-5.5179955E-4,2.9926042E-3,-8.90546E-5,4.2145388E-4,-1.9811322E-4,2.7794172E-3,-6.614753E-4,-4.3683054E-4,-1.8487215E-3,-1.108408E-3,1.6205698E-3,2.501247E-4,6.31501E-4,-1.1378492E-3,-1.8555196E-5,3.350294E-5,3.5371687E-4,3.405718E-4,-6.038341E-4,-4.9766706E-4,4.5451146E-5,-1.4308526E-3,-1.4623559E-4,-1.1577604E-4,-1.9786783E-5,-7.163288E-4,-3.73483E-5,-1.8770217E-4,1.4836616E-4],"split_indices":[487,9,1211,41,12,0,2439,0,12,0,0,5,2,0,2361,0,0,19,19,0,5,0,5,13,7,11,9,5,13,172,5,0,0,11,11,0,0,11,0,33,0,0,41,13,10,0,33,0,21,12,2,0,21,13,11,11,12,0,8,7,1037,0,7,0,0,0,0,0,0,0,0,0,0,0,0,0,0,0,0,0,0,0,0,0,0,0,0,0,0,0,0,0,0,0,0,0,0,0,0,0,0,0,0,0,0,0,0,0,0,0,0,0,0,0,0,0,0,0,0,0,0],"split_type":[0,0,0,0,0,0,0,0,0,0,0,0,0,0,0,0,0,0,0,0,0,0,0,0,0,0,0,0,0,0,0,0,0,0,0,0,0,0,0,0,0,0,0,0,0,0,0,0,0,0,0,0,0,0,0,0,0,0,0,0,0,0,0,0,0,0,0,0,0,0,0,0,0,0,0,0,0,0,0,0,0,0,0,0,0,0,0,0,0,0,0,0,0,0,0,0,0,0,0,0,0,0,0,0,0,0,0,0,0,0,0,0,0,0,0,0,0,0,0,0,0],"sum_hessian":[6.487E4,2.224E3,6.2646E4,2.35E2,1.989E3,1.526E3,6.112E4,7.1E1,1.64E2,3.75E2,1.614E3,1.016E3,5.1E2,5.182E3,5.5938E4,1.8E1,5.3E1,3.9E1,1.25E2,3.18E2,5.7E1,8.18E2,7.96E2,1.14E2,9.02E2,4.4E1,4.66E2,2.612E3,2.57E3,5.0182E4,5.756E3,9E0,9E0,3.2E1,2.1E1,2.3E1,1.6E1,5.8E1,6.7E1,6.4E1,2.54E2,7E0,5E1,2.92E2,5.26E2,9.5E1,7.01E2,2.7E1,8.7E1,9.9E1,8.03E2,1E1,3.4E1,5.4E1,4.12E2,2.51E2,2.361E3,5.12E2,2.058E3,7.5E2,4.9432E4,5.88E2,5.168E3,1.3E1,1.9E1,4E0,1.7E1,1.4E1,9E0,7E0,9E0,1.3E1,4.5E1,1.3E1,5.4E1,2.5E1,3.9E1,1.88E2,6.6E1,1.7E1,3.3E1,7.4E1,2.18E2,6.4E1,4.62E2,6E1,3.5E1,2.2E2,4.81E2,2E1,7E0,4.8E1,3.9E1,2.3E1,7.6E1,1.05E2,6.98E2,4E0,6E0,2.1E1,1.3E1,7E0,4.7E1,9.4E1,3.18E2,5.3E1,1.98E2,4.5E2,1.911E3,1.71E2,3.41E2,2.16E2,1.842E3,7.1E1,6.79E2,5.218E3,4.4214E4,1.86E2,4.02E2,5.77E2,4.591E3],"tree_param":{"num_deleted":"0","num_feature":"3370","num_nodes":"121","size_leaf_vector":"1"}},{"base_weights":[-2.7550707E-4,4.6647773E-3,-4.1649336E-4,1.1126788E-4,9.366535E-3,-1.8740815E-4,-3.125065E-3,-9.6376E-3,1.1152097E-3,2.0285135E-2,6.5891584E-3,-5.7389378E-3,-7.7856246E-5,-2.370305E-3,-7.0838435E-3,-3.729582E-2,-2.282737E-3,4.122991E-3,-4.2068786E-3,-1.3484872E-2,2.5072634E-2,-4.2519094E-3,7.5766966E-3,9.685249E-3,-9.328303E-3,-7.2375033E-3,2.4827332E-6,5.2433875E-3,-3.3015753E-3,-1.5223036E-2,-3.2056724E-3,3.102223E-2,-6.595831E-2,-5.800777E-3,9.733319E-3,-1.1684872E-3,7.7489195E-3,9.976185E-3,-5.9247827E-3,1.2003686E-3,-3.5081226E-2,-1.0702908E-2,2.890016E-2,2.8964194E-2,-1.9177005E-2,-1.5524268E-3,8.838046E-3,4.5006584E-2,5.403603E-3,6.2170667E-3,-1.1004726E-2,3.5809923E-3,-9.786278E-3,3.264135E-3,-1.5628526E-4,-1.6756791E-3,1.6991064E-2,1.9073007E-3,-3.9635757E-3,-3.4019355E-2,-1.3122901E-2,1.0586526E-2,-5.0282045E-3,3.9243223E-3,-2.1302064E-3,-4.4485996E-3,-5.6710246E-4,-6.489243E-4,-1.604185E-4,3.3545494E-3,-1.6264235E-4,-1.5366616E-3,1.1534034E-4,-1.6001027E-4,5.7602214E-4,1.7082691E-4,7.626375E-4,2.0727566E-4,-3.696577E-4,3.800816E-4,-4.2473795E-3,-9.529504E-4,3.2002133E-4,2.0670614E-3,9.834818E-4,5.038435E-4,2.441523E-3,-2.0560164E-3,-3.9612013E-4,-1.4451309E-3,6.075709E-4,1.3594059E-4,5.3407723E-4,5.8599317E-4,2.6800898E-3,1.9951956E-3,5.7996986E-5,-7.2652666E-4,5.80289E-4,-3.4383625E-5,-6.568108E-4,1.0657061E-3,-3.1705084E-4,5.082301E-4,-6.096903E-4,3.2060434E-5,7.9033274E-4,-1.7673216E-5,9.970433E-5,7.441694E-4,-4.4949306E-4,1.2491074E-3,9.022244E-5,8.3853846E-4,-3.7346556E-4,-3.8471454E-4,-6.479381E-5,1.8729449E-3,-2.688093E-3,-1.50432E-3,-5.551242E-4,-1.4676452E-3,9.799866E-4,-9.7337906E-4,-1.7359169E-4],"categories":[],"categories_nodes":[],"categories_segments":[],"categories_sizes":[],"default_left":[0,0,1,0,0,0,1,0,0,0,0,0,0,0,0,0,0,0,0,0,0,0,0,0,0,0,0,1,0,0,0,0,0,0,0,0,0,0,0,0,0,1,0,1,0,0,0,0,0,0,0,1,0,1,1,0,0,0,0,0,0,0,0,0,0,0,0,0,0,0,0,0,0,0,0,0,0,0,0,0,0,0,0,0,0,0,0,0,0,0,0,0,0,0,0,0,0,0,0,0,0,0,0,0,0,0,0,0,0,0,0,0,0,0,0,0,0,0,0,0,0,0,0,0,0],"id":13,"left_children":[1,3,5,7,9,11,13,15,17,19,21,23,25,27,29,31,33,35,37,39,41,43,45,47,49,51,53,55,57,59,61,63,65,67,69,71,73,75,77,-1,79,81,83,85,87,89,91,93,95,97,99,101,103,105,107,109,111,113,115,117,119,121,123,-1,-1,-1,-1,-1,-1,-1,-1,-1,-1,-1,-1,-1,-1,-1,-1,-1,-1,-1,-1,-1,-1,-1,-1,-1,-1,-1,-1,-1,-1,-1,-1,-1,-1,-1,-1,-1,-1,-1,-1,-1,-1,-1,-1,-1,-1,-1,-1,-1,-1,-1,-1,-1,-1,-1,-1,-1,-1,-1,-1,-1,-1],"loss_changes":[4.5411073E-2,3.8728744E-2,3.9330646E-2,9.01506E-3,2.6855633E-2,3.5544675E-2,1.4752537E-2,1.740919E-2,1.3383756E-2,2.9439412E-2,7.6441597E-3,6.270595E-2,3.2967534E-2,2.9463772E-2,2.4919257E-2,3.7293162E-2,2.9732955E-3,1.0254658E-2,7.4173817E-3,1.9465212E-2,2.1944545E-2,3.030066E-2,7.52151E-3,3.2120757E-2,2.3992069E-2,1.7572053E-2,2.9352019E-2,3.6849655E-2,1.2769636E-2,9.619638E-3,1.3551654E-2,2.431155E-2,1.533084E-2,9.6316764E-4,1.2135937E-2,2.2469563E-2,1.3127342E-2,1.0900972E-3,4.023119E-3,0E0,3.257232E-2,2.4086605E-3,1.5608601E-2,6.637132E-3,1.0046689E-2,3.033543E-2,6.434858E-3,5.9522428E-3,2.8063994E-2,1.0230895E-2,1.822126E-2,2.1600844E-2,2.4860583E-2,8.654478E-2,2.2918351E-2,3.4772985E-2,2.0342987E-2,5.8381494E-2,3.2673795E-2,3.729286E-2,7.5831115E-3,2.3254193E-2,1.06071E-2,0E0,0E0,0E0,0E0,0E0,0E0,0E0,0E0,0E0,0E0,0E0,0E0,0E0,0E0,0E0,0E0,0E0,0E0,0E0,0E0,0E0,0E0,0E0,0E0,0E0,0E0,0E0,0E0,0E0,0E0,0E0,0E0,0E0,0E0,0E0,0E0,0E0,0E0,0E0,0E0,0E0,0E0,0E0,0E0,0E0,0E0,0E0,0E0,0E0,0E0,0E0,0E0,0E0,0E0,0E0,0E0,0E0,0E0,0E0,0E0,0E0,0E0],"parents":[2147483647,0,0,1,1,2,2,3,3,4,4,5,5,6,6,7,7,8,8,9,9,10,10,11,11,12,12,13,13,14,14,15,15,16,16,17,17,18,18,19,19,20,20,21,21,22,22,23,23,24,24,25,25,26,26,27,27,28,28,29,29,30,30,31,31,32,32,33,33,34,34,35,35,36,36,37,37,38,38,40,40,41,41,42,42,43,43,44,44,45,45,46,46,47,47,48,48,49,49,50,50,51,51,52,52,53,53,54,54,55,55,56,56,57,57,58,58,59,59,60,60,61,61,62,62],"right_children":[2,4,6,8,10,12,14,16,18,20,22,24,26,28,30,32,34,36,38,40,42,44,46,48,50,52,54,56,58,60,62,64,66,68,70,72,74,76,78,-1,80,82,84,86,88,90,92,94,96,98,100,102,104,106,108,110,112,114,116,118,120,122,124,-1,-1,-1,-1,-1,-1,-1,-1,-1,-1,-1,-1,-1,-1,-1,-1,-1,-1,-1,-1,-1,-1,-1,-1,-1,-1,-1,-1,-1,-1,-1,-1,-1,-1,-1,-1,-1,-1,-1,-1,-1,-1,-1,-1,-1,-1,-1,-1,-1,-1,-1,-1,-1,-1,-1,-1,-1,-1,-1,-1,-1,-1],"split_conditions":[9.524249E-2,4E0,5.5094905E-2,2.00001E0,2.00001E0,2.00001E0,5E0,2.00001E0,3E0,2.00001E0,2.00001E0,2E0,7.704318E-2,2.00001E0,7.709885E-2,2.00001E0,3E0,2.00001E0,2.00001E0,5E0,2.00001E0,2.00001E0,2.00001E0,2.00001E0,2.00001E0,2.00001E0,1.03314266E-1,3E0,2.00001E0,2.00001E0,2.00001E0,3E0,3E0,2.00001E0,2.00001E0,2.00001E0,2.00001E0,2.00001E0,2.00001E0,1.2003686E-3,2.00001E0,5E0,2.00001E0,5E0,5E0,2.00001E0,2.00001E0,2.00001E0,2.00001E0,2.00001E0,2.00001E0,2E0,2.00001E0,5E0,6.4186156E-2,7.709885E-2,7.849888E-2,3E0,3E0,2.00001E0,2.00001E0,2.00001E0,2.00001E0,3.9243223E-3,-2.1302064E-3,-4.4485996E-3,-5.6710246E-4,-6.489243E-4,-1.604185E-4,3.3545494E-3,-1.6264235E-4,-1.5366616E-3,1.1534034E-4,-1.6001027E-4,5.7602214E-4,1.7082691E-4,7.626375E-4,2.0727566E-4,-3.696577E-4,3.800816E-4,-4.2473795E-3,-9.529504E-4,3.2002133E-4,2.0670614E-3,9.834818E-4,5.038435E-4,2.441523E-3,-2.0560164E-3,-3.9612013E-4,-1.4451309E-3,6.075709E-4,1.3594059E-4,5.3407723E-4,5.8599317E-4,2.6800898E-3,1.9951956E-3,5.7996986E-5,-7.2652666E-4,5.80289E-4,-3.4383625E-5,-6.568108E-4,1.0657061E-3,-3.1705084E-4,5.082301E-4,-6.096903E-4,3.2060434E-5,7.9033274E-4,-1.7673216E-5,9.970433E-5,7.441694E-4,-4.4949306E-4,1.2491074E-3,9.022244E-5,8.3853846E-4,-3.7346556E-4,-3.8471454E-4,-6.479381E-5,1.8729449E-3,-2.688093E-3,-1.50432E-3,-5.551242E-4,-1.4676452E-3,9.799866E-4,-9.7337906E-4,-1.7359169E-4],"split_indices":[2314,0,3224,10,11,75,0,12,0,3,6,0,2655,10,298,26,0,26,1,0,6,12,2,3,4,11,3059,0,9,10,3,0,0,11,11,1,12,26,7,0,26,0,26,0,0,26,12,12,2,11,11,0,2,0,983,298,468,0,0,12,6,12,4,0,0,0,0,0,0,0,0,0,0,0,0,0,0,0,0,0,0,0,0,0,0,0,0,0,0,0,0,0,0,0,0,0,0,0,0,0,0,0,0,0,0,0,0,0,0,0,0,0,0,0,0,0,0,0,0,0,0,0,0,0,0],"split_type":[0,0,0,0,0,0,0,0,0,0,0,0,0,0,0,0,0,0,0,0,0,0,0,0,0,0,0,0,0,0,0,0,0,0,0,0,0,0,0,0,0,0,0,0,0,0,0,0,0,0,0,0,0,0,0,0,0,0,0,0,0,0,0,0,0,0,0,0,0,0,0,0,0,0,0,0,0,0,0,0,0,0,0,0,0,0,0,0,0,0,0,0,0,0,0,0,0,0,0,0,0,0,0,0,0,0,0,0,0,0,0,0,0,0,0,0,0,0,0,0,0,0,0,0,0],"sum_hessian":[6.5194E4,1.808E3,6.3386E4,9.19E2,8.89E2,5.8444E4,4.942E3,8.5E1,8.34E2,1.79E2,7.1E2,1.13E3,5.7314E4,4.152E3,7.9E2,1.7E1,6.8E1,5.33E2,3.01E2,2.2E1,1.57E2,5.9E1,6.51E2,2.13E2,9.17E2,6.35E2,5.6679E4,4.52E2,3.7E3,2.54E2,5.36E2,5E0,1.2E1,5.3E1,1.5E1,2.17E2,3.16E2,3.2E1,2.69E2,8E0,1.4E1,1.5E1,1.42E2,1.8E1,4.1E1,7.9E1,5.72E2,2.2E1,1.91E2,8.9E1,8.28E2,1.21E2,5.14E2,2.63E3,5.4049E4,2.85E2,1.67E2,4.17E2,3.283E3,2.4E1,2.3E2,6.2E1,4.74E2,3E0,2E0,8E0,4E0,1.3E1,4E1,2E0,1.3E1,2.2E1,1.95E2,8.1E1,2.35E2,1.5E1,1.7E1,3.4E1,2.35E2,8E0,6E0,1E1,5E0,5.9E1,8.3E1,1E1,8E0,1.3E1,2.8E1,2.6E1,5.3E1,1.33E2,4.39E2,5E0,1.7E1,2E1,1.71E2,1.8E1,7.1E1,1.42E2,6.86E2,4.3E1,7.8E1,5.5E1,4.59E2,2.176E3,4.54E2,4.951E4,4.539E3,8.7E1,1.98E2,1.09E2,5.8E1,1.61E2,2.56E2,1.368E3,1.915E3,5E0,1.9E1,2.3E1,2.07E2,1.1E1,5.1E1,4.5E1,4.29E2],"tree_param":{"num_deleted":"0","num_feature":"3370","num_nodes":"125","size_leaf_vector":"1"}},{"base_weights":[-1.4177014E-5,-2.872145E-3,2.9600126E-4,-9.88031E-3,-2.0741445E-3,-2.0891654E-3,5.630706E-4,-8.7547305E-5,-1.4856011E-2,-6.2177116E-3,-1.5665774E-3,1.38606625E-2,-2.9788553E-3,4.3589447E-4,4.9771476E-3,-1.8622372E-2,1.6997486E-2,-2.6590265E-3,-2.211918E-2,5.392371E-3,-9.410234E-3,-5.1781363E-3,-6.32274E-4,-5.279474E-3,1.806819E-2,-1.1495216E-2,-1.7216746E-3,4.7517396E-3,3.1659988E-4,-6.9422047E-3,6.5961843E-3,-3.7042573E-2,-1.3907876E-2,4.18294E-2,1.0673492E-2,-3.5875607E-2,4.853428E-3,-4.271608E-2,-1.4555884E-2,-2.5161982E-2,9.421349E-3,1.8907924E-3,-1.1792606E-2,-1.4592783E-2,-9.519622E-4,3.3728366E-3,-2.251615E-3,1.6378814E-2,-4.3187913E-2,6.0861693E-3,2.2814646E-2,-2.2423554E-2,-9.157731E-3,-7.3003396E-4,-1.2659749E-2,2.1401457E-2,2.7461266E-3,3.1627933E-3,